{"learner":{"attributes":{"scikit_learn":"{\"use_label_encoder\": false, \"n_estimators\": 3000, \"objective\": \"binary:logistic\", \"max_depth\": 3, \"learning_rate\": null, \"verbosity\": 0, \"booster\": null, \"tree_method\": null, \"gamma\": 1, \"min_child_weight\": 8, \"max_delta_step\": null, \"subsample\": 0.5, \"colsample_bytree\": 0.7, \"colsample_bylevel\": null, \"colsample_bynode\": null, \"reg_alpha\": null, \"reg_lambda\": null, \"scale_pos_weight\": null, \"base_score\": null, \"missing\": NaN, \"num_parallel_tree\": null, \"kwargs\": {\"eta\": 0.03}, \"random_state\": null, \"n_jobs\": -1, \"monotone_constraints\": null, \"interaction_constraints\": null, \"importance_type\": \"gain\", \"gpu_id\": null, \"validate_parameters\": null, \"classes_\": [0, 1], \"n_classes_\": 2, \"_features_count\": 5, \"n_features_in_\": 5, \"type\": \"XGBClassifier\"}"},"gradient_booster":{"model":{"gbtree_model_param":{"num_trees":"3000","size_leaf_vector":"0"},"tree_info":[0,0,0,0,0,0,0,0,0,0,0,0,0,0,0,0,0,0,0,0,0,0,0,0,0,0,0,0,0,0,0,0,0,0,0,0,0,0,0,0,0,0,0,0,0,0,0,0,0,0,0,0,0,0,0,0,0,0,0,0,0,0,0,0,0,0,0,0,0,0,0,0,0,0,0,0,0,0,0,0,0,0,0,0,0,0,0,0,0,0,0,0,0,0,0,0,0,0,0,0,0,0,0,0,0,0,0,0,0,0,0,0,0,0,0,0,0,0,0,0,0,0,0,0,0,0,0,0,0,0,0,0,0,0,0,0,0,0,0,0,0,0,0,0,0,0,0,0,0,0,0,0,0,0,0,0,0,0,0,0,0,0,0,0,0,0,0,0,0,0,0,0,0,0,0,0,0,0,0,0,0,0,0,0,0,0,0,0,0,0,0,0,0,0,0,0,0,0,0,0,0,0,0,0,0,0,0,0,0,0,0,0,0,0,0,0,0,0,0,0,0,0,0,0,0,0,0,0,0,0,0,0,0,0,0,0,0,0,0,0,0,0,0,0,0,0,0,0,0,0,0,0,0,0,0,0,0,0,0,0,0,0,0,0,0,0,0,0,0,0,0,0,0,0,0,0,0,0,0,0,0,0,0,0,0,0,0,0,0,0,0,0,0,0,0,0,0,0,0,0,0,0,0,0,0,0,0,0,0,0,0,0,0,0,0,0,0,0,0,0,0,0,0,0,0,0,0,0,0,0,0,0,0,0,0,0,0,0,0,0,0,0,0,0,0,0,0,0,0,0,0,0,0,0,0,0,0,0,0,0,0,0,0,0,0,0,0,0,0,0,0,0,0,0,0,0,0,0,0,0,0,0,0,0,0,0,0,0,0,0,0,0,0,0,0,0,0,0,0,0,0,0,0,0,0,0,0,0,0,0,0,0,0,0,0,0,0,0,0,0,0,0,0,0,0,0,0,0,0,0,0,0,0,0,0,0,0,0,0,0,0,0,0,0,0,0,0,0,0,0,0,0,0,0,0,0,0,0,0,0,0,0,0,0,0,0,0,0,0,0,0,0,0,0,0,0,0,0,0,0,0,0,0,0,0,0,0,0,0,0,0,0,0,0,0,0,0,0,0,0,0,0,0,0,0,0,0,0,0,0,0,0,0,0,0,0,0,0,0,0,0,0,0,0,0,0,0,0,0,0,0,0,0,0,0,0,0,0,0,0,0,0,0,0,0,0,0,0,0,0,0,0,0,0,0,0,0,0,0,0,0,0,0,0,0,0,0,0,0,0,0,0,0,0,0,0,0,0,0,0,0,0,0,0,0,0,0,0,0,0,0,0,0,0,0,0,0,0,0,0,0,0,0,0,0,0,0,0,0,0,0,0,0,0,0,0,0,0,0,0,0,0,0,0,0,0,0,0,0,0,0,0,0,0,0,0,0,0,0,0,0,0,0,0,0,0,0,0,0,0,0,0,0,0,0,0,0,0,0,0,0,0,0,0,0,0,0,0,0,0,0,0,0,0,0,0,0,0,0,0,0,0,0,0,0,0,0,0,0,0,0,0,0,0,0,0,0,0,0,0,0,0,0,0,0,0,0,0,0,0,0,0,0,0,0,0,0,0,0,0,0,0,0,0,0,0,0,0,0,0,0,0,0,0,0,0,0,0,0,0,0,0,0,0,0,0,0,0,0,0,0,0,0,0,0,0,0,0,0,0,0,0,0,0,0,0,0,0,0,0,0,0,0,0,0,0,0,0,0,0,0,0,0,0,0,0,0,0,0,0,0,0,0,0,0,0,0,0,0,0,0,0,0,0,0,0,0,0,0,0,0,0,0,0,0,0,0,0,0,0,0,0,0,0,0,0,0,0,0,0,0,0,0,0,0,0,0,0,0,0,0,0,0,0,0,0,0,0,0,0,0,0,0,0,0,0,0,0,0,0,0,0,0,0,0,0,0,0,0,0,0,0,0,0,0,0,0,0,0,0,0,0,0,0,0,0,0,0,0,0,0,0,0,0,0,0,0,0,0,0,0,0,0,0,0,0,0,0,0,0,0,0,0,0,0,0,0,0,0,0,0,0,0,0,0,0,0,0,0,0,0,0,0,0,0,0,0,0,0,0,0,0,0,0,0,0,0,0,0,0,0,0,0,0,0,0,0,0,0,0,0,0,0,0,0,0,0,0,0,0,0,0,0,0,0,0,0,0,0,0,0,0,0,0,0,0,0,0,0,0,0,0,0,0,0,0,0,0,0,0,0,0,0,0,0,0,0,0,0,0,0,0,0,0,0,0,0,0,0,0,0,0,0,0,0,0,0,0,0,0,0,0,0,0,0,0,0,0,0,0,0,0,0,0,0,0,0,0,0,0,0,0,0,0,0,0,0,0,0,0,0,0,0,0,0,0,0,0,0,0,0,0,0,0,0,0,0,0,0,0,0,0,0,0,0,0,0,0,0,0,0,0,0,0,0,0,0,0,0,0,0,0,0,0,0,0,0,0,0,0,0,0,0,0,0,0,0,0,0,0,0,0,0,0,0,0,0,0,0,0,0,0,0,0,0,0,0,0,0,0,0,0,0,0,0,0,0,0,0,0,0,0,0,0,0,0,0,0,0,0,0,0,0,0,0,0,0,0,0,0,0,0,0,0,0,0,0,0,0,0,0,0,0,0,0,0,0,0,0,0,0,0,0,0,0,0,0,0,0,0,0,0,0,0,0,0,0,0,0,0,0,0,0,0,0,0,0,0,0,0,0,0,0,0,0,0,0,0,0,0,0,0,0,0,0,0,0,0,0,0,0,0,0,0,0,0,0,0,0,0,0,0,0,0,0,0,0,0,0,0,0,0,0,0,0,0,0,0,0,0,0,0,0,0,0,0,0,0,0,0,0,0,0,0,0,0,0,0,0,0,0,0,0,0,0,0,0,0,0,0,0,0,0,0,0,0,0,0,0,0,0,0,0,0,0,0,0,0,0,0,0,0,0,0,0,0,0,0,0,0,0,0,0,0,0,0,0,0,0,0,0,0,0,0,0,0,0,0,0,0,0,0,0,0,0,0,0,0,0,0,0,0,0,0,0,0,0,0,0,0,0,0,0,0,0,0,0,0,0,0,0,0,0,0,0,0,0,0,0,0,0,0,0,0,0,0,0,0,0,0,0,0,0,0,0,0,0,0,0,0,0,0,0,0,0,0,0,0,0,0,0,0,0,0,0,0,0,0,0,0,0,0,0,0,0,0,0,0,0,0,0,0,0,0,0,0,0,0,0,0,0,0,0,0,0,0,0,0,0,0,0,0,0,0,0,0,0,0,0,0,0,0,0,0,0,0,0,0,0,0,0,0,0,0,0,0,0,0,0,0,0,0,0,0,0,0,0,0,0,0,0,0,0,0,0,0,0,0,0,0,0,0,0,0,0,0,0,0,0,0,0,0,0,0,0,0,0,0,0,0,0,0,0,0,0,0,0,0,0,0,0,0,0,0,0,0,0,0,0,0,0,0,0,0,0,0,0,0,0,0,0,0,0,0,0,0,0,0,0,0,0,0,0,0,0,0,0,0,0,0,0,0,0,0,0,0,0,0,0,0,0,0,0,0,0,0,0,0,0,0,0,0,0,0,0,0,0,0,0,0,0,0,0,0,0,0,0,0,0,0,0,0,0,0,0,0,0,0,0,0,0,0,0,0,0,0,0,0,0,0,0,0,0,0,0,0,0,0,0,0,0,0,0,0,0,0,0,0,0,0,0,0,0,0,0,0,0,0,0,0,0,0,0,0,0,0,0,0,0,0,0,0,0,0,0,0,0,0,0,0,0,0,0,0,0,0,0,0,0,0,0,0,0,0,0,0,0,0,0,0,0,0,0,0,0,0,0,0,0,0,0,0,0,0,0,0,0,0,0,0,0,0,0,0,0,0,0,0,0,0,0,0,0,0,0,0,0,0,0,0,0,0,0,0,0,0,0,0,0,0,0,0,0,0,0,0,0,0,0,0,0,0,0,0,0,0,0,0,0,0,0,0,0,0,0,0,0,0,0,0,0,0,0,0,0,0,0,0,0,0,0,0,0,0,0,0,0,0,0,0,0,0,0,0,0,0,0,0,0,0,0,0,0,0,0,0,0,0,0,0,0,0,0,0,0,0,0,0,0,0,0,0,0,0,0,0,0,0,0,0,0,0,0,0,0,0,0,0,0,0,0,0,0,0,0,0,0,0,0,0,0,0,0,0,0,0,0,0,0,0,0,0,0,0,0,0,0,0,0,0,0,0,0,0,0,0,0,0,0,0,0,0,0,0,0,0,0,0,0,0,0,0,0,0,0,0,0,0,0,0,0,0,0,0,0,0,0,0,0,0,0,0,0,0,0,0,0,0,0,0,0,0,0,0,0,0,0,0,0,0,0,0,0,0,0,0,0,0,0,0,0,0,0,0,0,0,0,0,0,0,0,0,0,0,0,0,0,0,0,0,0,0,0,0,0,0,0,0,0,0,0,0,0,0,0,0,0,0,0,0,0,0,0,0,0,0,0,0,0,0,0,0,0,0,0,0,0,0,0,0,0,0,0,0,0,0,0,0,0,0,0,0,0,0,0,0,0,0,0,0,0,0,0,0,0,0,0,0,0,0,0,0,0,0,0,0,0,0,0,0,0,0,0,0,0,0,0,0,0,0,0,0,0,0,0,0,0,0,0,0,0,0,0,0,0,0,0,0,0,0,0,0,0,0,0,0,0,0,0,0,0,0,0,0,0,0,0,0,0,0,0,0,0,0,0,0,0,0,0,0,0,0,0,0,0,0,0,0,0,0,0,0,0,0,0,0,0,0,0,0,0,0,0,0,0,0,0,0,0,0,0,0,0,0,0,0,0,0,0,0,0,0,0,0,0,0,0,0,0,0,0,0,0,0,0,0,0,0,0,0,0,0,0,0,0,0,0,0,0,0,0,0,0,0,0,0,0,0,0,0,0,0,0,0,0,0,0,0,0,0,0,0,0,0,0,0,0,0,0,0,0,0,0,0,0,0,0,0,0,0,0,0,0,0,0,0,0,0,0,0,0,0,0,0,0,0,0,0,0,0,0,0,0,0,0,0,0,0,0,0,0,0,0,0,0,0,0,0,0,0,0,0,0,0,0,0,0,0,0,0,0,0,0,0,0,0,0,0,0,0,0,0,0,0,0,0,0,0,0,0,0,0,0,0,0,0,0,0,0,0,0,0,0,0,0,0,0,0,0,0,0,0,0,0,0,0,0,0,0,0,0,0,0,0,0,0,0,0,0,0,0,0,0,0,0,0,0,0,0,0,0,0,0,0,0,0,0,0,0,0,0,0,0,0,0,0,0,0,0,0,0,0,0,0,0,0,0,0,0,0,0,0,0,0,0,0,0,0,0,0,0,0,0,0,0,0,0,0,0,0,0,0,0,0,0,0,0,0,0,0,0,0,0,0,0,0,0,0,0,0,0,0,0,0,0,0,0,0,0,0,0,0,0,0,0,0,0,0,0,0,0,0,0,0,0,0,0,0,0,0,0,0,0,0,0,0,0,0,0,0,0,0,0,0,0,0,0,0,0,0,0,0,0,0,0,0,0,0,0,0,0,0,0,0,0,0,0,0,0,0,0,0,0,0,0,0,0,0,0,0,0,0,0,0,0,0,0,0,0,0,0,0,0,0,0,0,0,0,0,0,0,0,0,0,0,0,0,0,0,0,0,0,0,0,0,0,0,0,0,0,0,0,0,0,0,0,0,0,0,0,0,0,0,0,0,0,0,0,0,0,0,0,0,0,0,0,0,0,0,0,0,0,0,0,0,0,0,0,0,0,0,0,0,0,0,0,0,0,0,0,0,0,0,0,0,0,0,0,0,0,0,0,0,0,0,0,0,0,0,0,0,0,0,0,0,0,0,0,0,0,0,0,0,0,0,0,0,0,0,0,0,0,0,0,0,0,0,0,0,0,0,0,0,0,0,0,0,0,0,0,0,0,0,0,0,0,0,0,0,0,0,0,0,0,0,0,0,0,0,0,0,0,0,0,0,0,0,0,0,0,0,0,0,0,0,0,0,0,0,0,0,0,0,0,0,0,0,0,0,0,0,0,0,0,0,0,0,0,0,0,0,0,0,0,0,0,0,0,0,0,0,0,0,0,0,0,0,0,0,0,0,0,0,0,0,0,0,0,0,0,0,0,0,0,0,0,0,0,0,0,0,0,0,0,0,0,0,0,0,0,0,0,0,0,0,0,0,0,0,0,0,0,0,0,0,0,0,0,0,0,0,0,0,0,0,0,0,0,0,0,0,0,0,0,0,0,0,0,0,0,0,0,0,0,0,0,0,0,0,0,0,0,0,0,0,0,0,0,0,0,0,0,0,0,0,0,0,0,0,0,0,0,0,0,0,0,0,0,0,0,0,0,0,0,0,0,0,0,0,0,0,0,0,0,0,0,0,0,0,0,0,0,0,0,0,0,0,0,0,0,0,0,0,0,0,0,0,0,0,0,0,0,0,0,0,0,0,0,0,0,0,0,0,0,0,0,0,0,0,0,0,0,0,0,0,0,0,0,0,0,0,0,0,0,0,0,0,0,0,0,0,0,0,0,0,0,0,0,0,0,0,0,0,0,0,0,0,0,0,0,0,0,0,0,0,0,0,0,0,0,0,0,0,0,0,0,0,0,0,0,0,0,0,0,0,0,0,0,0,0,0,0,0,0,0,0,0,0,0,0,0,0,0,0,0,0,0,0,0,0,0,0,0,0,0,0,0,0,0,0],"trees":[{"base_weights":[-1.3468388E-1,5.849592E-1,-1.9958715E0,6.7042094E-1,-7.298647E-1,-2.3541887E-1,7.7753574E-1,-5.9832084E-1,-1.3343512E0],"categories":[],"categories_nodes":[],"categories_segments":[],"categories_sizes":[],"default_left":[true,true,false,true,true,false,false,false,false],"id":0,"left_children":[1,3,-1,5,7,-1,-1,-1,-1],"loss_changes":[8.377035E4,5.068698E3,0E0,4.1095254E3,2.181305E2,0E0,0E0,0E0,0E0],"parents":[2147483647,0,0,1,1,3,3,4,4],"right_children":[2,4,-1,6,8,-1,-1,-1,-1],"split_conditions":[5E-1,8.75E-1,-5.9876144E-2,1.6346154E-1,9.519231E-1,-7.062566E-3,2.3326071E-2,-1.7949624E-2,-4.0030535E-2],"split_indices":[2,1,0,1,1,0,0,0,0],"split_type":[0,0,0,0,0,0,0,0,0],"sum_hessian":[6.254175E4,4.5103E4,1.743875E4,4.235075E4,2.75225E3,4.47825E3,3.78725E4,2.262E3,4.9025E2],"tree_param":{"num_deleted":"0","num_feature":"5","num_nodes":"9","size_leaf_vector":"0"}},{"base_weights":[-1.3293454E-1,5.633875E-1,-1.9376953E0,-9.523816E-1,7.5780326E-1,-1.3381366E0,-6.686378E-1,8.858733E-1,-2.6786312E-1],"categories":[],"categories_nodes":[],"categories_segments":[],"categories_sizes":[],"default_left":[true,true,false,true,true,false,false,false,false],"id":1,"left_children":[1,3,-1,5,7,-1,-1,-1,-1],"loss_changes":[7.865798E4,1.3310489E4,0E0,5.6114844E2,5.258664E3,0E0,0E0,0E0,0E0],"parents":[2147483647,0,0,1,1,3,3,4,4],"right_children":[2,4,-1,6,8,-1,-1,-1,-1],"split_conditions":[5E-1,-6.904762E-1,-5.8130857E-2,-8.333334E-1,9.2857146E-1,-4.0144097E-2,-2.0059135E-2,2.6576199E-2,-8.035894E-3],"split_indices":[2,0,0,0,0,0,0,0,0],"split_type":[0,0,0,0,0,0,0,0,0],"sum_hessian":[6.258929E4,4.5164414E4,1.7424877E4,5.1338984E3,4.0030516E4,2.1742498E3,2.9596487E3,3.5587062E4,4.44345E3],"tree_param":{"num_deleted":"0","num_feature":"5","num_nodes":"9","size_leaf_vector":"0"}},{"base_weights":[-1.2545817E-1,5.538301E-1,-1.8846186E0,5.936269E-1,-3.3006284E-1,-8.646892E-2,6.425565E-1,-1.239155E-1,-7.1993065E-1],"categories":[],"categories_nodes":[],"categories_segments":[],"categories_sizes":[],"default_left":[true,true,false,true,true,false,false,false,false],"id":2,"left_children":[1,3,-1,5,7,-1,-1,-1,-1],"loss_changes":[7.469339E4,1.586418E3,0E0,1.4359883E3,1.5610924E2,0E0,0E0,0E0,0E0],"parents":[2147483647,0,0,1,1,3,3,4,4],"right_children":[2,4,-1,6,8,-1,-1,-1,-1],"split_conditions":[5E-1,9.32526E-1,-5.653856E-2,9.16955E-2,9.7404844E-1,-2.5940675E-3,1.9276693E-2,-3.7174649E-3,-2.1597918E-2],"split_indices":[2,4,0,4,4,0,0,0,0],"split_type":[0,0,0,0,0,0,0,0,0],"sum_hessian":[6.250426E4,4.5092695E4,1.7411564E4,4.315021E4,1.942487E3,2.8960352E3,4.0254176E4,1.2714894E3,6.709977E2],"tree_param":{"num_deleted":"0","num_feature":"5","num_nodes":"9","size_leaf_vector":"0"}},{"base_weights":[-1.2796524E-1,-3.4769457E-2,-1.2260166E0,-9.1474426E-1,1.0010156E-1,-1.1175451E0,-1.6126044E0,-6.997277E-1,-1.1241305E0,1.5606761E-1,-5.876265E-1,-1.1452166E0,-7.071418E-1,-1.6246688E0,-1.2949308E0],"categories":[],"categories_nodes":[],"categories_segments":[],"categories_sizes":[],"default_left":[true,true,true,true,true,true,true,false,false,false,false,false,false,false,false],"id":3,"left_children":[1,3,5,7,9,11,13,-1,-1,-1,-1,-1,-1,-1,-1],"loss_changes":[6.3671562E3,6.8069517E3,2.0231738E2,3.4237793E2,1.9142483E3,4.239453E1,1.9750977E0,0E0,0E0,0E0,0E0,0E0,0E0,0E0,0E0],"parents":[2147483647,0,0,1,1,2,2,3,3,4,4,5,5,6,6],"right_children":[2,4,6,8,10,12,14,-1,-1,-1,-1,-1,-1,-1,-1],"split_conditions":[8.75E-1,1.6346154E-1,9.519231E-1,1.4423078E-1,8.979238E-1,9.326923E-1,9.7115386E-1,-2.099183E-2,-3.3723913E-2,4.682028E-3,-1.7628795E-2,-3.4356497E-2,-2.1214254E-2,-4.8740063E-2,-3.8847923E-2],"split_indices":[1,1,1,1,4,1,1,0,0,0,0,0,0,0,0],"split_type":[0,0,0,0,0,0,0,0,0,0,0,0,0,0,0],"sum_hessian":[6.2218918E4,5.7352246E4,4.866671E3,7.621233E3,4.973101E4,3.803381E3,1.0632897E3,3.7622058E3,3.8590269E3,4.5989266E4,3.7417493E3,3.5614592E3,2.4192201E2,1.020422E3,4.286766E1],"tree_param":{"num_deleted":"0","num_feature":"5","num_nodes":"15","size_leaf_vector":"0"}},{"base_weights":[-1.2711258E-1,-1.3181293E0,3.0292624E-1,-1.4599037E0,-9.073803E-1,4.600534E-1,-7.107849E-1,-1.5826004E0,-1.3875622E0,-8.447856E-1,-1.565678E0,5.390253E-1,-7.6982665E-1,-3.7281865E-1,-1.1645993E0],"categories":[],"categories_nodes":[],"categories_segments":[],"categories_sizes":[],"default_left":[true,true,true,true,true,true,true,false,false,false,false,false,false,false,false],"id":4,"left_children":[1,3,5,7,9,11,13,-1,-1,-1,-1,-1,-1,-1,-1],"loss_changes":[3.1959557E4,9.626367E2,7.3026816E3,1.07015625E2,1.7380737E2,3.8557031E3,9.432593E2,0E0,0E0,0E0,0E0,0E0,0E0,0E0,0E0],"parents":[2147483647,0,0,1,1,2,2,3,3,4,4,5,5,6,6],"right_children":[2,4,6,8,10,12,14,-1,-1,-1,-1,-1,-1,-1,-1],"split_conditions":[-5.476191E-1,-6.904762E-1,9.2857146E-1,-8.333334E-1,8.75E-1,8.75E-1,1.3095238E0,-4.747801E-2,-4.1626863E-2,-2.5343567E-2,-4.6970338E-2,1.6170759E-2,-2.30948E-2,-1.1184559E-2,-3.4937978E-2],"split_indices":[0,0,0,0,1,1,0,0,0,0,0,0,0,0,0],"split_type":[0,0,0,0,0,0,0,0,0,0,0,0,0,0,0],"sum_hessian":[6.2396875E4,1.6552297E4,4.584458E4,1.230317E4,4.2491255E3,3.9692684E4,6.1518955E3,4.55562E3,7.7475503E3,3.8822615E3,3.6686414E2,3.729828E4,2.394401E3,3.5270442E3,2.6248513E3],"tree_param":{"num_deleted":"0","num_feature":"5","num_nodes":"15","size_leaf_vector":"0"}},{"base_weights":[-1.1912235E-1,5.287907E-1,-1.8130808E0,-8.939303E-1,7.097391E-1,-1.7983167E0,-1.8313924E0,-1.2517843E0,-6.339961E-1,8.107783E-1,-4.4851542E-1],"categories":[],"categories_nodes":[],"categories_segments":[],"categories_sizes":[],"default_left":[true,true,true,true,true,false,false,false,false,false,false],"id":5,"left_children":[1,3,5,7,9,-1,-1,-1,-1,-1,-1],"loss_changes":[6.8411336E4,1.1607743E4,1.3710938E0,4.724629E2,4.681539E3,0E0,0E0,0E0,0E0,0E0,0E0],"parents":[2147483647,0,0,1,1,2,2,3,3,4,4],"right_children":[2,4,6,8,10,-1,-1,-1,-1,-1,-1],"split_conditions":[5E-1,-6.904762E-1,-5.476191E-1,-8.333334E-1,1.0714285E0,-5.39495E-2,-5.494177E-2,-3.755353E-2,-1.9019883E-2,2.432335E-2,-1.3455462E-2],"split_indices":[2,0,0,0,0,0,0,0,0,0,0],"split_type":[0,0,0,0,0,0,0,0,0,0,0],"sum_hessian":[6.2329773E4,4.508583E4,1.7243947E4,5.086767E3,3.999906E4,9.601659E3,7.642289E3,2.1386504E3,2.9481167E3,3.6790016E4,3.2090435E3],"tree_param":{"num_deleted":"0","num_feature":"5","num_nodes":"11","size_leaf_vector":"0"}},{"base_weights":[-1.19756155E-1,-1.2541718E0,2.896664E-1,-1.3845973E0,-8.717837E-1,4.433235E-1,-6.02696E-1,-1.4933004E0,-1.3207747E0,-8.128598E-1,-1.4985148E0,5.174859E-1,-7.172801E-1,-2.875709E-1,-1.1086317E0],"categories":[],"categories_nodes":[],"categories_segments":[],"categories_sizes":[],"default_left":[true,true,true,true,true,true,true,false,false,false,false,false,false,false,false],"id":6,"left_children":[1,3,5,7,9,11,13,-1,-1,-1,-1,-1,-1,-1,-1],"loss_changes":[2.8942162E4,8.2297656E2,6.2787314E3,8.350586E1,1.5409595E2,3.3626636E3,1.0721335E3,0E0,0E0,0E0,0E0,0E0,0E0,0E0,0E0],"parents":[2147483647,0,0,1,1,2,2,3,3,4,4,5,5,6,6],"right_children":[2,4,6,8,10,12,14,-1,-1,-1,-1,-1,-1,-1,-1],"split_conditions":[-5.476191E-1,-6.904762E-1,8.8095236E-1,-8.333334E-1,8.75E-1,8.75E-1,1.3095238E0,-4.479901E-2,-3.962324E-2,-2.4385793E-2,-4.4955444E-2,1.5524577E-2,-2.1518402E-2,-8.627127E-3,-3.3258952E-2],"split_indices":[0,0,0,0,1,1,0,0,0,0,0,0,0,0,0],"split_type":[0,0,0,0,0,0,0,0,0,0,0,0,0,0,0],"sum_hessian":[6.231241E4,1.652457E4,4.578784E4,1.231987E4,4.2047E3,3.9062176E4,6.725664E3,4.549219E3,7.7706504E3,3.8454558E3,3.5924417E2,3.6716547E4,2.3456292E3,4.1453047E3,2.5803596E3],"tree_param":{"num_deleted":"0","num_feature":"5","num_nodes":"15","size_leaf_vector":"0"}},{"base_weights":[-1.08426146E-1,5.176492E-1,-1.7560956E0,-8.151308E-1,6.8444204E-1,-1.7281327E0,-1.790906E0,-1.1600617E0,-5.5621165E-1,7.8698254E-1,-3.5227686E-1,-1.7996875E0,-1.7261316E0],"categories":[],"categories_nodes":[],"categories_segments":[],"categories_sizes":[],"default_left":[true,true,true,true,true,false,true,false,false,false,false,false,false],"id":7,"left_children":[1,3,5,7,9,-1,11,-1,-1,-1,-1,-1,-1],"loss_changes":[6.41393E4,1.0016527E4,1.35703125E1,4.4696802E2,4.2573457E3,0E0,1.2167969E0,0E0,0E0,0E0,0E0,0E0,0E0],"parents":[2147483647,0,0,1,1,2,2,3,3,4,4,6,6],"right_children":[2,4,6,8,10,-1,12,-1,-1,-1,-1,-1,-1],"split_conditions":[5E-1,-6.904762E-1,-5.476191E-1,-8.333334E-1,1.0238096E0,-5.1843982E-2,8.75E-1,-3.4801852E-2,-1.6686348E-2,2.3609476E-2,-1.0568306E-2,-5.3990625E-2,-5.1783945E-2],"split_indices":[2,0,0,0,0,0,1,0,0,0,0,0,0],"split_type":[0,0,0,0,0,0,0,0,0,0,0,0,0],"sum_hessian":[6.21748E4,4.5055473E4,1.7119326E4,5.0109487E3,4.0044527E4,9.521453E3,7.5978726E3,2.1471045E3,2.8638445E3,3.6440484E4,3.6040403E3,6.6672056E3,9.3066675E2],"tree_param":{"num_deleted":"0","num_feature":"5","num_nodes":"13","size_leaf_vector":"0"}},{"base_weights":[-1.1095286E-1,4.948833E-1,-1.7166734E0,5.319935E-1,-2.8973475E-1,-2.4610725E-1,5.725471E-1,-9.4731E-2,-7.173164E-1],"categories":[],"categories_nodes":[],"categories_segments":[],"categories_sizes":[],"default_left":[true,true,false,true,true,false,false,false,false],"id":8,"left_children":[1,3,-1,5,7,-1,-1,-1,-1],"loss_changes":[6.03406E4,1.3114756E3,0E0,1.3570693E3,1.695699E2,0E0,0E0,0E0,0E0],"parents":[2147483647,0,0,1,1,3,3,4,4],"right_children":[2,4,-1,6,8,-1,-1,-1,-1],"split_conditions":[5E-1,9.290657E-1,-5.15002E-2,7.093425E-2,9.7404844E-1,-7.3832176E-3,1.7176412E-2,-2.8419301E-3,-2.1519491E-2],"split_indices":[2,4,0,4,4,0,0,0,0],"split_type":[0,0,0,0,0,0,0,0,0],"sum_hessian":[6.2025652E4,4.5034785E4,1.6990871E4,4.300127E4,2.0335143E3,2.129899E3,4.087137E4,1.3974238E3,6.360904E2],"tree_param":{"num_deleted":"0","num_feature":"5","num_nodes":"9","size_leaf_vector":"0"}},{"base_weights":[-1.0517606E-1,4.8608372E-1,-1.6809385E0,-8.0173093E-1,6.4831084E-1,-1.6567017E0,-1.7107451E0,-1.3245871E0,-6.3238263E-1,7.554134E-1,-3.0327064E-1],"categories":[],"categories_nodes":[],"categories_segments":[],"categories_sizes":[],"default_left":[true,true,true,true,true,false,false,false,false,false,false],"id":9,"left_children":[1,3,5,7,9,-1,-1,-1,-1,-1,-1],"loss_changes":[5.749976E4,9.376196E3,9.332031E0,4.4376343E2,4.0623262E3,0E0,0E0,0E0,0E0,0E0,0E0],"parents":[2147483647,0,0,1,1,2,2,3,3,4,4],"right_children":[2,4,6,8,10,-1,-1,-1,-1,-1,-1],"split_conditions":[5E-1,-6.904762E-1,-5.476191E-1,-8.8095236E-1,9.7619045E-1,-4.970105E-2,-5.1322352E-2,-3.9737612E-2,-1.8971479E-2,2.2662401E-2,-9.098119E-3],"split_indices":[2,0,0,0,0,0,0,0,0,0,0],"split_type":[0,0,0,0,0,0,0,0,0,0,0],"sum_hessian":[6.171401E4,4.4876195E4,1.6837816E4,5.0201987E3,3.9855996E4,9.31778E3,7.520037E3,1.2265261E3,3.7936726E3,3.582412E4,4.031876E3],"tree_param":{"num_deleted":"0","num_feature":"5","num_nodes":"11","size_leaf_vector":"0"}},{"base_weights":[-9.9878736E-2,4.7763762E-1,-1.6473068E0,-7.8064543E-1,6.3778716E-1,-1.6244574E0,-1.6751992E0,-1.1160885E0,-5.2961564E-1,7.544551E-1,-1.886428E-1,-1.6822362E0,-1.6220454E0],"categories":[],"categories_nodes":[],"categories_segments":[],"categories_sizes":[],"default_left":[true,true,true,true,true,false,true,false,false,false,false,true,true],"id":10,"left_children":[1,3,5,7,9,-1,-1,-1,-1,-1,-1,-1,-1],"loss_changes":[5.489998E4,9.015498E3,7.9179688E0,4.2477344E2,3.826581E3,0E0,7.03125E-2,0E0,0E0,0E0,0E0,0E0,0E0],"parents":[2147483647,0,0,1,1,2,2,3,3,4,4,6,6],"right_children":[2,4,6,8,10,-1,-1,-1,-1,-1,-1,-1,-1],"split_conditions":[5E-1,-6.904762E-1,-5.476191E-1,-8.333334E-1,8.8095236E-1,-4.873372E-2,-5.0255973E-2,-3.3482656E-2,-1.588847E-2,2.2633651E-2,-5.659284E-3,-5.0467085E-2,-4.8661362E-2],"split_indices":[2,0,0,0,0,0,1,0,0,0,0,2147483647,2147483647],"split_type":[0,0,0,0,0,0,0,0,0,0,0,0,0],"sum_hessian":[6.143051E4,4.473546E4,1.669505E4,5.050465E3,3.9684996E4,9.209702E3,7.4853486E3,2.160291E3,2.890174E3,3.4775754E4,4.909239E3,6.5831597E3,9.0218854E2],"tree_param":{"num_deleted":"2","num_feature":"5","num_nodes":"13","size_leaf_vector":"0"}},{"base_weights":[-1.0222705E-1,4.5512685E-1,-1.6160297E0,-1.8170245E-1,4.9664757E-1,-6.3985753E-1,-3.2635007E-2,5.5449355E-1,-4.537348E-2],"categories":[],"categories_nodes":[],"categories_segments":[],"categories_sizes":[],"default_left":[true,true,false,true,true,false,false,false,false],"id":11,"left_children":[1,3,-1,5,7,-1,-1,-1,-1],"loss_changes":[5.1623676E4,1.1825713E3,0E0,1.8697354E2,1.3163643E3,0E0,0E0,0E0,0E0],"parents":[2147483647,0,0,1,1,3,3,4,4],"right_children":[2,4,-1,6,8,-1,-1,-1,-1],"split_conditions":[5E-1,8.823529E-2,-4.848089E-2,2.5951557E-2,8.737024E-1,-1.9195726E-2,-9.790502E-4,1.6634805E-2,-1.3612044E-3],"split_indices":[2,4,0,4,4,0,0,0,0],"split_type":[0,0,0,0,0,0,0,0,0],"sum_hessian":[6.118364E4,4.471947E4,1.6464174E4,2.7369995E3,4.198247E4,6.7109955E2,2.0659001E3,3.793402E4,4.0484473E3],"tree_param":{"num_deleted":"0","num_feature":"5","num_nodes":"9","size_leaf_vector":"0"}},{"base_weights":[-1.0044294E-1,-1.1106628E0,2.5590461E-1,-1.1971937E0,-6.497795E-1,3.9713287E-1,-5.6395173E-1,-1.2640126E0,-1.0287176E0,-1.0952157E0,-5.9589803E-1,4.3752787E-1,-3.1894964E-1,-2.7058378E-1,-1.0301706E0],"categories":[],"categories_nodes":[],"categories_segments":[],"categories_sizes":[],"default_left":[true,true,true,true,true,true,true,false,false,false,false,false,false,false,false],"id":12,"left_children":[1,3,5,7,9,11,13,-1,-1,-1,-1,-1,-1,-1,-1],"loss_changes":[2.1915475E4,6.323125E2,5.2110625E3,1.4914453E2,5.9625732E1,1.110647E3,9.042822E2,0E0,0E0,0E0,0E0,0E0,0E0,0E0,0E0],"parents":[2147483647,0,0,1,1,2,2,3,3,4,4,5,5,6,6],"right_children":[2,4,6,8,10,12,14,-1,-1,-1,-1,-1,-1,-1,-1],"split_conditions":[-5.476191E-1,-6.428572E-1,8.8095236E-1,-7.380953E-1,1.2975779E-1,9.186851E-1,1.3095238E0,-3.792038E-2,-3.0861529E-2,-3.2856468E-2,-1.787694E-2,1.3125836E-2,-9.568489E-3,-8.117513E-3,-3.0905116E-2],"split_indices":[0,0,0,0,4,4,0,0,0,0,0,0,0,0,0],"split_type":[0,0,0,0,0,0,0,0,0,0,0,0,0,0,0],"sum_hessian":[6.0876324E4,1.5873623E4,4.5002703E4,1.33631E4,2.5105234E3,3.839014E4,6.612561E3,9.563602E3,3.7994978E3,2.6882535E2,2.2416982E3,3.6340523E4,2.0496191E3,4.0596248E3,2.5529365E3],"tree_param":{"num_deleted":"0","num_feature":"5","num_nodes":"15","size_leaf_vector":"0"}},{"base_weights":[-9.808588E-2,-1.0795277E0,2.4670698E-1,-1.2010183E0,-7.325693E-1,3.6237115E-1,-6.882943E-1,-1.1685439E0,-1.4232717E0,-6.761293E-1,-1.3503662E0,4.3408015E-1,-7.443521E-1,-4.1295823E-1,-1.1133989E0],"categories":[],"categories_nodes":[],"categories_segments":[],"categories_sizes":[],"default_left":[true,true,true,true,true,true,true,false,false,false,false,false,false,false,false],"id":13,"left_children":[1,3,5,7,9,11,13,-1,-1,-1,-1,-1,-1,-1,-1],"loss_changes":[2.0560992E4,6.6497266E2,4.862963E3,8.276953E1,1.4202344E2,3.1759927E3,5.7895703E2,0E0,0E0,0E0,0E0,0E0,0E0,0E0,0E0],"parents":[2147483647,0,0,1,1,2,2,3,3,4,4,5,5,6,6],"right_children":[2,4,6,8,10,12,14,-1,-1,-1,-1,-1,-1,-1,-1],"split_conditions":[-5.476191E-1,-6.904762E-1,1.0238096E0,8.75E-1,8.75E-1,8.75E-1,1.4047619E0,-3.505632E-2,-4.269815E-2,-2.0283878E-2,-4.0510986E-2,1.3022404E-2,-2.2330562E-2,-1.2388747E-2,-3.3401966E-2],"split_indices":[0,0,0,1,1,1,0,0,0,0,0,0,0,0,0],"split_type":[0,0,0,0,0,0,0,0,0,0,0,0,0,0,0],"sum_hessian":[6.07587E4,1.5795417E4,4.496328E4,1.1697108E4,4.0983086E3,4.0013973E4,4.9493086E3,1.0211346E4,1.4857633E3,3.7571604E3,3.41148E2,3.7579645E4,2.4343276E3,3.0049824E3,1.9443263E3],"tree_param":{"num_deleted":"0","num_feature":"5","num_nodes":"15","size_leaf_vector":"0"}},{"base_weights":[-9.490483E-2,-1.6067373E-2,-1.0402992E0,-7.989623E-1,1.01840585E-1,-9.4060177E-1,-1.4001651E0,-5.986424E-1,-9.9271035E-1,1.496994E-1,-4.966657E-1,-9.676894E-1,-5.51013E-1,-1.4134206E0,-1.0921733E0],"categories":[],"categories_nodes":[],"categories_segments":[],"categories_sizes":[],"default_left":[true,true,true,true,true,true,true,false,false,false,false,false,false,false,false],"id":14,"left_children":[1,3,5,7,9,11,13,-1,-1,-1,-1,-1,-1,-1,-1],"loss_changes":[4.523817E3,5.171744E3,1.663003E2,2.840254E2,1.3948229E3,3.8105713E1,2.5856934E0,0E0,0E0,0E0,0E0,0E0,0E0,0E0,0E0],"parents":[2147483647,0,0,1,1,2,2,3,3,4,4,5,5,6,6],"right_children":[2,4,6,8,10,12,14,-1,-1,-1,-1,-1,-1,-1,-1],"split_conditions":[8.75E-1,1.6346154E-1,9.519231E-1,1.4423078E-1,8.979238E-1,9.326923E-1,9.7115386E-1,-1.7959272E-2,-2.978131E-2,4.4909823E-3,-1.489997E-2,-2.903068E-2,-1.6530389E-2,-4.2402618E-2,-3.27652E-2],"split_indices":[1,1,1,1,4,1,1,0,0,0,0,0,0,0,0],"split_type":[0,0,0,0,0,0,0,0,0,0,0,0,0,0,0],"sum_hessian":[6.0695125E4,5.6024223E4,4.6709033E3,7.3323706E3,4.869185E4,3.6604294E3,1.01047406E3,3.6070562E3,3.7253147E3,4.5087254E4,3.6045972E3,3.4210815E3,2.3934776E2,9.653384E2,4.51357E1],"tree_param":{"num_deleted":"0","num_feature":"5","num_nodes":"15","size_leaf_vector":"0"}},{"base_weights":[-9.2822365E-2,-1.0529314E0,2.4376687E-1,-1.1684521E0,-7.21691E-1,3.4844294E-1,-7.067762E-1,-1.281601E0,-1.1021419E0,-6.682079E-1,-1.3090047E0,4.150984E-1,-6.850808E-1,-4.3732604E-1,-1.0618808E0],"categories":[],"categories_nodes":[],"categories_segments":[],"categories_sizes":[],"default_left":[true,true,true,true,true,true,true,false,false,false,false,false,false,false,false],"id":15,"left_children":[1,3,5,7,9,11,13,-1,-1,-1,-1,-1,-1,-1,-1],"loss_changes":[1.9591404E4,6.013125E2,4.4665454E3,8.611426E1,1.27020996E2,2.7858994E3,4.256245E2,0E0,0E0,0E0,0E0,0E0,0E0,0E0,0E0],"parents":[2147483647,0,0,1,1,2,2,3,3,4,4,5,5,6,6],"right_children":[2,4,6,8,10,12,14,-1,-1,-1,-1,-1,-1,-1,-1],"split_conditions":[-5.476191E-1,-6.904762E-1,1.0714285E0,-8.333334E-1,8.75E-1,8.75E-1,1.4047619E0,-3.844803E-2,-3.3064254E-2,-2.0046236E-2,-3.927014E-2,1.2452952E-2,-2.0552425E-2,-1.3119781E-2,-3.1856425E-2],"split_indices":[0,0,0,0,1,1,0,0,0,0,0,0,0,0,0],"split_type":[0,0,0,0,0,0,0,0,0,0,0,0,0,0,0],"sum_hessian":[6.0622234E4,1.5735408E4,4.488683E4,1.1664768E4,4.0706406E3,4.0434695E4,4.452132E3,4.303373E3,7.361394E3,3.7328503E3,3.3779025E2,3.798548E4,2.4492144E3,2.532628E3,1.9195035E3],"tree_param":{"num_deleted":"0","num_feature":"5","num_nodes":"15","size_leaf_vector":"0"}},{"base_weights":[-8.569567E-2,4.4400135E-1,-1.557988E0,-6.5834975E-1,5.8187145E-1,-1.509581E0,-1.6163074E0,-9.8664844E-1,-4.1921675E-1,6.925105E-1,-1.1461051E-1,-1.4997588E0,-1.5379729E0,-1.6324593E0,-1.5377963E0],"categories":[],"categories_nodes":[],"categories_segments":[],"categories_sizes":[],"default_left":[true,true,true,true,true,true,true,false,false,false,false,true,true,false,false],"id":16,"left_children":[1,3,5,7,9,-1,13,-1,-1,-1,-1,-1,-1,-1,-1],"loss_changes":[4.7103293E4,6.7511514E3,4.2671875E1,3.8727563E2,3.0424219E3,1.328125E-1,6.6640625E0,0E0,0E0,0E0,0E0,0E0,0E0,0E0,0E0],"parents":[2147483647,0,0,1,1,2,2,3,3,4,4,5,5,6,6],"right_children":[2,4,6,8,10,-1,14,-1,-1,-1,-1,-1,-1,-1,-1],"split_conditions":[5E-1,-6.904762E-1,-5.476191E-1,-8.333334E-1,8.333334E-1,-4.5287427E-2,1.0714285E0,-2.9599452E-2,-1.2576502E-2,2.0775314E-2,-3.4383151E-3,-4.4992764E-2,-4.6139188E-2,-4.8973776E-2,-4.6133887E-2],"split_indices":[2,0,0,0,0,0,0,0,0,0,0,2147483647,2147483647,0,0],"split_type":[0,0,0,0,0,0,0,0,0,0,0,0,0,0,0],"sum_hessian":[6.03971E4,4.4417426E4,1.5979673E4,4.937276E3,3.9480152E4,8.746589E3,7.2330835E3,2.0794014E3,2.8578743E3,3.406827E4,5.4118813E3,6.538448E3,2.208141E3,5.982521E3,1.2505626E3],"tree_param":{"num_deleted":"2","num_feature":"5","num_nodes":"15","size_leaf_vector":"0"}},{"base_weights":[-8.299505E-2,-1.0084339E0,2.3482172E-1,-1.1239588E0,-6.80396E-1,3.597419E-1,-4.9343598E-1,-1.2911638E0,-1.084227E0,-6.252575E-1,-1.2782423E0,4.2356613E-1,-6.555415E-1,-2.2921935E-1,-9.209143E-1],"categories":[],"categories_nodes":[],"categories_segments":[],"categories_sizes":[],"default_left":[true,true,true,true,true,true,true,false,false,false,false,false,false,false,false],"id":17,"left_children":[1,3,5,7,9,11,13,-1,-1,-1,-1,-1,-1,-1,-1],"loss_changes":[1.7674367E4,5.813838E2,4.069539E3,7.406348E1,1.3117065E2,2.4744717E3,7.3957104E2,0E0,0E0,0E0,0E0,0E0,0E0,0E0,0E0],"parents":[2147483647,0,0,1,1,2,2,3,3,4,4,5,5,6,6],"right_children":[2,4,6,8,10,12,14,-1,-1,-1,-1,-1,-1,-1,-1],"split_conditions":[-5.476191E-1,-6.904762E-1,8.8095236E-1,-8.8095236E-1,8.75E-1,8.75E-1,1.3095238E0,-3.8734913E-2,-3.252681E-2,-1.8757725E-2,-3.834727E-2,1.2706984E-2,-1.9666243E-2,-6.8765804E-3,-2.7627429E-2],"split_indices":[0,0,0,0,1,1,0,0,0,0,0,0,0,0,0],"split_type":[0,0,0,0,0,0,0,0,0,0,0,0,0,0,0],"sum_hessian":[6.0090562E4,1.5360557E4,4.4730008E4,1.1358143E4,4.0024133E3,3.8181184E4,6.548823E3,2.1747148E3,9.183428E3,3.6663196E3,3.3609366E2,3.5923492E4,2.2576926E3,4.048225E3,2.5005984E3],"tree_param":{"num_deleted":"0","num_feature":"5","num_nodes":"15","size_leaf_vector":"0"}},{"base_weights":[-8.318888E-2,-7.7168417E-1,1.0789359E-2,-5.822201E-1,-9.576262E-1,1.032378E-1,-9.5739514E-1,-9.779512E-1,-1.9776542E-1,-7.904538E-1,-1.0197562E0,1.571533E-1,-3.8816455E-1,-8.5651934E-1,-1.3248317E0],"categories":[],"categories_nodes":[],"categories_segments":[],"categories_sizes":[],"default_left":[true,true,true,true,true,true,true,false,false,false,false,false,false,false,false],"id":18,"left_children":[1,3,5,7,9,11,13,-1,-1,-1,-1,-1,-1,-1,-1],"loss_changes":[3.8823296E3,2.533208E2,4.7257354E3,5.4324915E2,3.695337E1,1.2769543E3,1.6944043E2,0E0,0E0,0E0,0E0,0E0,0E0,0E0,0E0],"parents":[2147483647,0,0,1,1,2,2,3,3,4,4,5,5,6,6],"right_children":[2,4,6,8,10,12,14,-1,-1,-1,-1,-1,-1,-1,-1],"split_conditions":[1.6346154E-1,1.4423078E-1,8.75E-1,6.7307696E-2,-1.3091147E-1,8.7024224E-1,9.519231E-1,-2.9338537E-2,-5.9329625E-3,-2.3713613E-2,-3.0592686E-2,4.714599E-3,-1.1644936E-2,-2.569558E-2,-3.974495E-2],"split_indices":[1,1,1,1,3,4,1,0,0,0,0,0,0,0,0],"split_type":[0,0,0,0,0,0,0,0,0,0,0,0,0,0,0],"sum_hessian":[6.000065E4,7.2054546E3,5.2795195E4,3.5709731E3,3.6344817E3,4.81942E4,4.600996E3,1.7589191E3,1.812054E3,9.8848944E2,2.6459922E3,4.3429855E4,4.764341E3,3.612542E3,9.884542E2],"tree_param":{"num_deleted":"0","num_feature":"5","num_nodes":"15","size_leaf_vector":"0"}},{"base_weights":[-8.01433E-2,-9.789414E-1,2.2640544E-1,-1.0916982E0,-6.6120565E-1,3.4717473E-1,-4.7772256E-1,-1.2645428E0,-1.0514251E0,-6.0848093E-1,-1.2498368E0,-3.9500356E-1,4.3004003E-1,-2.194373E-1,-9.046923E-1],"categories":[],"categories_nodes":[],"categories_segments":[],"categories_sizes":[],"default_left":[true,true,true,true,true,true,true,false,false,false,false,false,false,false,false],"id":19,"left_children":[1,3,5,7,9,11,13,-1,-1,-1,-1,-1,-1,-1,-1],"loss_changes":[1.646162E4,5.4366406E2,3.7886995E3,7.672656E1,1.2283667E2,2.33902E3,7.191583E2,0E0,0E0,0E0,0E0,0E0,0E0,0E0,0E0],"parents":[2147483647,0,0,1,1,2,2,3,3,4,4,5,5,6,6],"right_children":[2,4,6,8,10,12,14,-1,-1,-1,-1,-1,-1,-1,-1],"split_conditions":[-5.476191E-1,-6.904762E-1,8.8095236E-1,-8.8095236E-1,8.75E-1,1.6346154E-1,1.3095238E0,-3.7936285E-2,-3.1542752E-2,-1.8254427E-2,-3.7495103E-2,-1.18501065E-2,1.2901201E-2,-6.583119E-3,-2.7140768E-2],"split_indices":[0,0,0,0,1,1,0,0,0,0,0,0,0,0,0],"split_type":[0,0,0,0,0,0,0,0,0,0,0,0,0,0,0],"sum_hessian":[5.9744473E4,1.51939E4,4.455057E4,1.121244E4,3.9814602E3,3.8028566E4,6.5220044E3,2.1130784E3,9.099362E3,3.656018E3,3.2544214E2,3.8191162E3,3.4209453E4,4.0646838E3,2.4573206E3],"tree_param":{"num_deleted":"0","num_feature":"5","num_nodes":"15","size_leaf_vector":"0"}},{"base_weights":[-8.2690515E-2,-9.5999134E-1,2.155892E-1,-1.0728801E0,-6.4590514E-1,3.3344522E-1,-4.7006792E-1,-1.2373924E0,-1.034362E0,-1.038868E0,-5.7968986E-1,3.944142E-1,-6.2298244E-1,-2.7099967E-1,-9.588709E-1],"categories":[],"categories_nodes":[],"categories_segments":[],"categories_sizes":[],"default_left":[true,true,true,true,true,true,true,false,false,false,false,false,false,false,false],"id":20,"left_children":[1,3,5,7,9,11,13,-1,-1,-1,-1,-1,-1,-1,-1],"loss_changes":[1.5640724E4,5.3702637E2,3.6046284E3,6.940137E1,1.0379419E2,2.219794E3,6.363966E2,0E0,0E0,0E0,0E0,0E0,0E0,0E0,0E0],"parents":[2147483647,0,0,1,1,2,2,3,3,4,4,5,5,6,6],"right_children":[2,4,6,8,10,12,14,-1,-1,-1,-1,-1,-1,-1,-1],"split_conditions":[-5.476191E-1,-6.904762E-1,8.8095236E-1,-8.8095236E-1,1.6346154E-1,8.75E-1,1.4047619E0,-3.7121773E-2,-3.1030858E-2,-3.1166038E-2,-1.7390696E-2,1.1832425E-2,-1.8689472E-2,-8.12999E-3,-2.8766125E-2],"split_indices":[0,0,0,0,1,1,0,0,0,0,0,0,0,0,0],"split_type":[0,0,0,0,0,0,0,0,0,0,0,0,0,0,0],"sum_hessian":[5.976839E4,1.5164454E4,4.4603938E4,1.1153314E4,4.01114E3,3.8062055E4,6.541884E3,2.1100608E3,9.043254E3,5.7630396E2,3.434836E3,3.5781684E4,2.2803716E3,4.649783E3,1.8921007E3],"tree_param":{"num_deleted":"0","num_feature":"5","num_nodes":"15","size_leaf_vector":"0"}},{"base_weights":[-7.8728154E-2,4.232757E-1,-1.5129534E0,4.8733032E-1,-5.4250294E-1,-1.5238982E0,-1.429863E0,-2.46181E-1,5.756499E-1,-4.189567E-1,-1.1205829E0,-1.4868428E0,-1.5402056E0],"categories":[],"categories_nodes":[],"categories_segments":[],"categories_sizes":[],"default_left":[true,true,true,true,true,true,false,false,false,false,false,false,false],"id":21,"left_children":[1,3,5,7,9,11,-1,-1,-1,-1,-1,-1,-1],"loss_changes":[4.2804367E4,2.7245547E3,1.18359375E1,2.6756455E3,1.9519025E2,5.9316406E0,0E0,0E0,0E0,0E0,0E0,0E0,0E0],"parents":[2147483647,0,0,1,1,2,2,3,3,4,4,5,5],"right_children":[2,4,6,8,10,12,-1,-1,-1,-1,-1,-1,-1],"split_conditions":[5E-1,8.75E-1,8.75E-1,1.6346154E-1,9.519231E-1,2.7884614E-1,-4.2895887E-2,-7.38543E-3,1.7269498E-2,-1.2568701E-2,-3.361749E-2,-4.460528E-2,-4.6206165E-2],"split_indices":[2,1,1,1,1,1,0,0,0,0,0,0,0],"split_type":[0,0,0,0,0,0,0,0,0,0,0,0,0],"sum_hessian":[5.9449723E4,4.4036785E4,1.5412938E4,4.1298203E4,2.7385793E3,1.3603696E4,1.8092421E3,4.437996E3,3.6860207E4,2.2577761E3,4.8080322E2,4.1853613E3,9.418335E3],"tree_param":{"num_deleted":"0","num_feature":"5","num_nodes":"13","size_leaf_vector":"0"}},{"base_weights":[-7.5842574E-2,-9.762567E-1,1.9639525E-1,-1.0887082E0,-7.7087593E-1,2.8383148E-1,-6.306691E-1,-1.2253603E0,-1.0470133E0,-7.060124E-1,-1.0728079E0,-4.1620043E-1,3.635217E-1,-4.4634408E-1,-1.0391423E0],"categories":[],"categories_nodes":[],"categories_segments":[],"categories_sizes":[],"default_left":[true,true,true,true,true,true,true,false,false,false,false,false,false,false,false],"id":22,"left_children":[1,3,5,7,9,11,13,-1,-1,-1,-1,-1,-1,-1,-1],"loss_changes":[1.4561194E4,3.1766113E2,3.2986475E3,4.947754E1,9.486621E1,2.301419E3,3.2790955E2,0E0,0E0,0E0,0E0,0E0,0E0,0E0,0E0],"parents":[2147483647,0,0,1,1,2,2,3,3,4,4,5,5,6,6],"right_children":[2,4,6,8,10,12,14,-1,-1,-1,-1,-1,-1,-1,-1],"split_conditions":[-5.952381E-1,-7.380953E-1,1.0714285E0,-8.8095236E-1,7.7884614E-1,1.6346154E-1,1.5E0,-3.6760807E-2,-3.1410396E-2,-2.1180373E-2,-3.2184236E-2,-1.2486013E-2,1.090565E-2,-1.3390322E-2,-3.1174267E-2],"split_indices":[0,0,0,0,1,1,0,0,0,0,0,0,0,0,0],"split_type":[0,0,0,0,0,0,0,0,0,0,0,0,0,0,0],"sum_hessian":[5.9400926E4,1.3789662E4,4.561126E4,8.907999E3,4.881663E3,4.125092E4,4.3603403E3,2.0759175E3,6.8320815E3,4.0211467E3,8.605165E2,4.215552E3,3.703537E4,3.0059756E3,1.354365E3],"tree_param":{"num_deleted":"0","num_feature":"5","num_nodes":"15","size_leaf_vector":"0"}},{"base_weights":[-7.541868E-2,-8.6757374E-1,2.1526343E-1,-9.8595583E-1,-4.5855677E-1,3.0940467E-1,-6.192764E-1,-1.056651E0,-8.097084E-1,-1.0614471E0,-4.1025943E-1,3.4386012E-1,-4.1762188E-1,-3.7973446E-1,-9.417065E-1],"categories":[],"categories_nodes":[],"categories_segments":[],"categories_sizes":[],"default_left":[true,true,true,true,true,true,true,false,false,false,false,false,false,false,false],"id":23,"left_children":[1,3,5,7,9,11,13,-1,-1,-1,-1,-1,-1,-1,-1],"loss_changes":[1.3628439E4,7.688545E2,3.4018735E3,1.5266016E2,1.0346271E2,9.7482495E2,3.3866614E2,0E0,0E0,0E0,0E0,0E0,0E0,0E0,0E0],"parents":[2147483647,0,0,1,1,2,2,3,3,4,4,5,5,6,6],"right_children":[2,4,6,8,10,12,14,-1,-1,-1,-1,-1,-1,-1,-1],"split_conditions":[-5E-1,-6.428572E-1,1.0714285E0,-7.380953E-1,9.16955E-2,9.290657E-1,1.4047619E0,-3.169953E-2,-2.4291253E-2,-3.1843413E-2,-1.2307783E-2,1.0315804E-2,-1.2528656E-2,-1.1392034E-2,-2.8251193E-2],"split_indices":[0,0,0,0,4,4,0,0,0,0,0,0,0,0,0],"split_type":[0,0,0,0,0,0,0,0,0,0,0,0,0,0,0],"sum_hessian":[5.9184E4,1.5887109E4,4.329689E4,1.2319933E4,3.5671772E3,3.890841E4,4.3884795E3,8.789395E3,3.5305378E3,2.6301495E2,3.3041624E3,3.714839E4,1.7600195E3,2.519129E3,1.8693508E3],"tree_param":{"num_deleted":"0","num_feature":"5","num_nodes":"15","size_leaf_vector":"0"}},{"base_weights":[-6.922538E-2,-8.477846E-1,2.1209283E-1,-9.666057E-1,-4.321722E-1,3.4305638E-1,-3.859092E-1,-1.0341029E0,-8.0152017E-1,-3.4989604E-1,-8.424116E-1,-3.485737E-1,4.197232E-1,-1.85267E-1,-8.249635E-1],"categories":[],"categories_nodes":[],"categories_segments":[],"categories_sizes":[],"default_left":[true,true,true,true,true,true,true,false,false,false,false,false,false,false,false],"id":24,"left_children":[1,3,5,7,9,11,13,-1,-1,-1,-1,-1,-1,-1,-1],"loss_changes":[1.2879658E4,7.703779E2,3.3831633E3,1.3441406E2,1.1689624E2,1.8791875E3,6.835432E2,0E0,0E0,0E0,0E0,0E0,0E0,0E0,0E0],"parents":[2147483647,0,0,1,1,2,2,3,3,4,4,5,5,6,6],"right_children":[2,4,6,8,10,12,14,-1,-1,-1,-1,-1,-1,-1,-1],"split_conditions":[-5E-1,-6.428572E-1,7.8571427E-1,-7.380953E-1,7.7884614E-1,1.6346154E-1,1.3095238E0,-3.1023087E-2,-2.4045605E-2,-1.0496881E-2,-2.5272347E-2,-1.0457211E-2,1.2591696E-2,-5.5580097E-3,-2.4748905E-2],"split_indices":[0,0,0,0,1,1,0,0,0,0,0,0,0,0,0],"split_type":[0,0,0,0,0,0,0,0,0,0,0,0,0,0,0],"sum_hessian":[5.8803258E4,1.5607335E4,4.3195926E4,1.213631E4,3.4710254E3,3.5435836E4,7.760088E3,8.610528E3,3.5257808E3,2.8927236E3,5.7830176E2,3.5357173E3,3.190012E4,5.327095E3,2.4329924E3],"tree_param":{"num_deleted":"0","num_feature":"5","num_nodes":"15","size_leaf_vector":"0"}},{"base_weights":[-6.463879E-2,4.1689602E-1,-1.4772419E0,-4.804495E-1,5.2575946E-1,-1.3918779E0,-1.5723091E0,-8.259952E-1,-2.3375395E-1,6.2239116E-1,-6.9870375E-2,-1.3751565E0,-1.4388269E0,-1.5985942E0,-1.4378548E0],"categories":[],"categories_nodes":[],"categories_segments":[],"categories_sizes":[],"default_left":[true,true,true,true,true,true,true,false,false,false,false,false,false,false,false],"id":25,"left_children":[1,3,5,7,9,11,13,-1,-1,-1,-1,-1,-1,-1,-1],"loss_changes":[3.993311E4,4.2772266E3,1.18927734E2,4.0364148E2,2.247378E3,4.2001953E0,2.2628906E1,0E0,0E0,0E0,0E0,0E0,0E0,0E0,0E0],"parents":[2147483647,0,0,1,1,2,2,3,3,4,4,5,5,6,6],"right_children":[2,4,6,8,10,12,14,-1,-1,-1,-1,-1,-1,-1,-1],"split_conditions":[5E-1,-6.904762E-1,-5.476191E-1,-8.333334E-1,8.333334E-1,-6.904762E-1,1.0714285E0,-2.4779856E-2,-7.0126182E-3,1.8671734E-2,-2.0961112E-3,-4.1254696E-2,-4.316481E-2,-4.7957826E-2,-4.3135643E-2],"split_indices":[2,0,0,0,0,0,0,0,0,0,0,0,0,0,0],"split_type":[0,0,0,0,0,0,0,0,0,0,0,0,0,0,0],"sum_hessian":[5.8704473E4,4.3780926E4,1.4923545E4,4.736363E3,3.9044566E4,7.871298E3,7.0522476E3,1.9719333E3,2.7644294E3,3.359436E4,5.4502065E3,5.82644E3,2.0448575E3,5.889912E3,1.1623352E3],"tree_param":{"num_deleted":"0","num_feature":"5","num_nodes":"15","size_leaf_vector":"0"}},{"base_weights":[-6.881931E-2,-8.505518E-1,1.8487175E-1,-9.557467E-1,-5.6486297E-1,2.9329702E-1,-3.8552797E-1,-1.0584761E0,-8.967849E-1,-1.014618E0,-5.199628E-1,-3.5586274E-1,3.3593982E-1,-2.004996E-1,-8.2514906E-1],"categories":[],"categories_nodes":[],"categories_segments":[],"categories_sizes":[],"default_left":[true,true,true,true,true,true,true,false,false,false,false,false,false,false,false],"id":26,"left_children":[1,3,5,7,9,11,13,-1,-1,-1,-1,-1,-1,-1,-1],"loss_changes":[1.156477E4,4.288457E2,2.7229758E3,6.2293945E1,7.7170044E1,1.0242178E3,5.718823E2,0E0,0E0,0E0,0E0,0E0,0E0,0E0,0E0],"parents":[2147483647,0,0,1,1,2,2,3,3,4,4,5,5,6,6],"right_children":[2,4,6,8,10,12,14,-1,-1,-1,-1,-1,-1,-1,-1],"split_conditions":[-5.476191E-1,-6.904762E-1,8.333334E-1,-8.333334E-1,1.0553633E-1,8.823529E-2,1.3571429E0,-3.175428E-2,-2.6903547E-2,-3.043854E-2,-1.5598883E-2,-1.0675882E-2,1.0078195E-2,-6.014988E-3,-2.4754472E-2],"split_indices":[0,0,0,0,4,4,0,0,0,0,0,0,0,0,0],"split_type":[0,0,0,0,0,0,0,0,0,0,0,0,0,0,0],"sum_hessian":[5.831232E4,1.4286634E4,4.4025688E4,1.0440091E4,3.8465425E3,3.6994094E4,7.0315913E3,3.8008699E3,6.639221E3,3.4719278E2,3.4993496E3,2.2798682E3,3.4714227E4,4.949778E3,2.0818135E3],"tree_param":{"num_deleted":"0","num_feature":"5","num_nodes":"15","size_leaf_vector":"0"}},{"base_weights":[-6.642657E-2,-8.0129397E-1,1.9511484E-1,-9.16446E-1,-4.1117766E-1,3.2777134E-1,-2.867524E-1,-9.786019E-1,-7.666375E-1,-8.74061E-1,-3.410371E-1,3.8407385E-1,-5.6568855E-1,-1.4885269E-1,-8.5349405E-1],"categories":[],"categories_nodes":[],"categories_segments":[],"categories_sizes":[],"default_left":[true,true,true,true,true,true,true,false,false,false,false,false,false,false,false],"id":27,"left_children":[1,3,5,7,9,11,13,-1,-1,-1,-1,-1,-1,-1,-1],"loss_changes":[1.1168001E4,6.847871E2,2.7394941E3,1.0889453E2,1.12615295E2,1.6906475E3,7.22914E2,0E0,0E0,0E0,0E0,0E0,0E0,0E0,0E0],"parents":[2147483647,0,0,1,1,2,2,3,3,4,4,5,5,6,6],"right_children":[2,4,6,8,10,12,14,-1,-1,-1,-1,-1,-1,-1,-1],"split_conditions":[-5E-1,-6.428572E-1,6.904762E-1,-7.380953E-1,1.6346154E-1,8.75E-1,1.4047619E0,-2.9358055E-2,-2.2999125E-2,-2.6221829E-2,-1.0231113E-2,1.1522216E-2,-1.6970657E-2,-4.4655805E-3,-2.5604822E-2],"split_indices":[0,0,0,0,1,1,0,0,0,0,0,0,0,0,0],"split_type":[0,0,0,0,0,0,0,0,0,0,0,0,0,0,0],"sum_hessian":[5.8104863E4,1.5251058E4,4.285381E4,1.1774258E4,3.4767996E3,3.3603258E4,9.250549E3,8.317695E3,3.4565627E3,4.560035E2,3.020796E3,3.1611771E4,1.9914868E3,7.441214E3,1.8093351E3],"tree_param":{"num_deleted":"0","num_feature":"5","num_nodes":"15","size_leaf_vector":"0"}},{"base_weights":[-6.0799316E-2,4.0533242E-1,-1.4505776E0,4.6667376E-1,-5.3316116E-1,-1.4610208E0,-1.3708259E0,-2.0947799E-1,5.488204E-1,-4.0369725E-1,-1.136901E0,-1.4186084E0,-1.4794625E0],"categories":[],"categories_nodes":[],"categories_segments":[],"categories_sizes":[],"default_left":[true,true,true,true,true,true,false,false,false,false,false,false,false],"id":28,"left_children":[1,3,5,7,9,11,-1,-1,-1,-1,-1,-1,-1],"loss_changes":[3.7562152E4,2.4998477E3,1.0126953E1,2.2638662E3,2.077912E2,7.9589844E0,0E0,0E0,0E0,0E0,0E0,0E0,0E0],"parents":[2147483647,0,0,1,1,2,2,3,3,4,4,5,5],"right_children":[2,4,6,8,10,12,-1,-1,-1,-1,-1,-1,-1],"split_conditions":[5E-1,8.75E-1,8.75E-1,1.6346154E-1,9.519231E-1,2.7884614E-1,-4.1124776E-2,-6.2843394E-3,1.6464612E-2,-1.2110917E-2,-3.410703E-2,-4.2558253E-2,-4.4383872E-2],"split_indices":[2,1,1,1,1,1,0,0,0,0,0,0,0],"split_type":[0,0,0,0,0,0,0,0,0,0,0,0,0],"sum_hessian":[5.7980504E4,4.341861E4,1.4561896E4,4.0755285E4,2.663323E3,1.2860535E4,1.701361E3,4.414862E3,3.6340426E4,2.1944265E3,4.688966E2,3.9209683E3,8.939567E3],"tree_param":{"num_deleted":"0","num_feature":"5","num_nodes":"13","size_leaf_vector":"0"}},{"base_weights":[-6.268534E-2,9.822091E-4,-8.500913E-1,-6.4931625E-1,9.65329E-2,-7.561569E-1,-1.202854E0,-4.4142053E-1,-8.541875E-1,-5.003924E-1,1.4015716E-1,-7.9153913E-1,-2.5468588E-1,-1.2206132E0,-8.33021E-1],"categories":[],"categories_nodes":[],"categories_segments":[],"categories_sizes":[],"default_left":[true,true,true,true,true,true,true,false,false,false,false,false,false,false,false],"id":29,"left_children":[1,3,5,7,9,11,13,-1,-1,-1,-1,-1,-1,-1,-1],"loss_changes":[2.8901501E3,3.3143474E3,1.4200024E2,2.906682E2,1.2111174E3,6.027661E1,4.928711E0,0E0,0E0,0E0,0E0,0E0,0E0,0E0,0E0],"parents":[2147483647,0,0,1,1,2,2,3,3,4,4,5,5,6,6],"right_children":[2,4,6,8,10,12,14,-1,-1,-1,-1,-1,-1,-1,-1],"split_conditions":[8.75E-1,1.6346154E-1,9.519231E-1,1.4423078E-1,9.16955E-2,9.326923E-1,9.7115386E-1,-1.3242615E-2,-2.5625624E-2,-1.5011771E-2,4.2047147E-3,-2.3746174E-2,-7.640576E-3,-3.6618397E-2,-2.499063E-2],"split_indices":[1,1,1,1,4,1,1,0,0,0,0,0,0,0,0],"split_type":[0,0,0,0,0,0,0,0,0,0,0,0,0,0,0],"sum_hessian":[5.764955E4,5.3337797E4,4.3117534E3,6.83236E3,4.6505438E4,3.4075325E3,9.0422107E2,3.3927139E3,3.439646E3,3.1665134E3,4.3338926E4,3.182413E3,2.2511938E2,8.6059503E2,4.3626015E1],"tree_param":{"num_deleted":"0","num_feature":"5","num_nodes":"15","size_leaf_vector":"0"}},{"base_weights":[-6.9132574E-2,-7.910619E-3,-8.294796E-1,-6.407433E-1,8.53746E-2,-7.348529E-1,-1.1918213E0,-4.554993E-1,-8.261195E-1,3.2480368E-1,-2.2766937E-2,-7.650849E-1,-3.1757164E-1,-1.1990396E0,-8.2097137E-1],"categories":[],"categories_nodes":[],"categories_segments":[],"categories_sizes":[],"default_left":[true,true,true,true,true,true,true,false,false,false,false,false,false,false,false],"id":30,"left_children":[1,3,5,7,9,11,13,-1,-1,-1,-1,-1,-1,-1,-1],"loss_changes":[2.686475E3,3.1531897E3,1.465791E2,2.3526538E2,1.2053217E3,4.280835E1,1.3951416E0,0E0,0E0,0E0,0E0,0E0,0E0,0E0,0E0],"parents":[2147483647,0,0,1,1,2,2,3,3,4,4,5,5,6,6],"right_children":[2,4,6,8,10,12,14,-1,-1,-1,-1,-1,-1,-1,-1],"split_conditions":[8.75E-1,1.6346154E-1,9.519231E-1,1.4423078E-1,5.2884614E-1,9.326923E-1,9.8096883E-1,-1.3664979E-2,-2.4783583E-2,9.7441105E-3,-6.8300805E-4,-2.2952547E-2,-9.527149E-3,-3.5971187E-2,-2.462914E-2],"split_indices":[1,1,1,1,1,1,4,0,0,0,0,0,0,0,0],"split_type":[0,0,0,0,0,0,0,0,0,0,0,0,0,0,0],"sum_hessian":[5.771083E4,5.341125E4,4.29958E3,6.861052E3,4.65502E4,3.4116465E3,8.879337E2,3.4334788E3,3.427573E3,1.4482792E4,3.2067406E4,3.1803936E3,2.3125285E2,8.687903E2,1.9143446E1],"tree_param":{"num_deleted":"0","num_feature":"5","num_nodes":"15","size_leaf_vector":"0"}},{"base_weights":[-5.904778E-2,3.9270097E-1,-1.4295537E0,4.4959477E-1,-4.7576246E-1,-1.4414623E0,-1.3358239E0,-1.7211181E-1,5.2413446E-1,-3.6062557E-1,-1.0305134E0,-1.376689E0,-1.4571607E0],"categories":[],"categories_nodes":[],"categories_segments":[],"categories_sizes":[],"default_left":[true,true,true,true,true,true,false,false,false,false,false,false,false],"id":31,"left_children":[1,3,5,7,9,11,-1,-1,-1,-1,-1,-1,-1],"loss_changes":[3.5696637E4,2.1428022E3,1.4029297E1,1.8860947E3,1.6994983E2,1.0875E1,0E0,0E0,0E0,0E0,0E0,0E0,0E0],"parents":[2147483647,0,0,1,1,2,2,3,3,4,4,5,5],"right_children":[2,4,6,8,10,12,-1,-1,-1,-1,-1,-1,-1],"split_conditions":[5E-1,8.75E-1,8.75E-1,1.6346154E-1,9.519231E-1,1.6346154E-1,-4.0074717E-2,-5.1633543E-3,1.5724033E-2,-1.0818766E-2,-3.0915402E-2,-4.130067E-2,-4.371482E-2],"split_indices":[2,1,1,1,1,1,0,0,0,0,0,0,0],"split_type":[0,0,0,0,0,0,0,0,0,0,0,0,0],"sum_hessian":[5.7654742E4,4.3362293E4,1.4292447E4,4.06967E4,2.6655947E3,1.2668508E4,1.6239395E3,4.356821E3,3.633988E4,2.2088123E3,4.5678235E2,2.4886697E3,1.0179838E4],"tree_param":{"num_deleted":"0","num_feature":"5","num_nodes":"13","size_leaf_vector":"0"}},{"base_weights":[-5.657742E-2,3.7934908E-1,-1.4115825E0,-5.504306E-1,4.7118536E-1,-1.3254364E0,-1.5025914E0,-9.4775236E-1,-3.9271906E-1,5.256821E-1,-3.439619E-1,-1.3090897E0,-1.3695983E0,-1.5315626E0,-1.3873855E0],"categories":[],"categories_nodes":[],"categories_segments":[],"categories_sizes":[],"default_left":[true,true,true,true,true,true,true,false,false,false,false,false,false,false,false],"id":32,"left_children":[1,3,5,7,9,11,13,-1,-1,-1,-1,-1,-1,-1,-1],"loss_changes":[3.383988E4,3.7013677E3,1.0733594E2,2.4381421E2,1.7526182E3,3.3857422E0,2.0481445E1,0E0,0E0,0E0,0E0,0E0,0E0,0E0,0E0],"parents":[2147483647,0,0,1,1,2,2,3,3,4,4,5,5,6,6],"right_children":[2,4,6,8,10,12,14,-1,-1,-1,-1,-1,-1,-1,-1],"split_conditions":[5E-1,-7.380953E-1,-5.476191E-1,-8.8095236E-1,1.1666667E0,-6.904762E-1,9.2857146E-1,-2.843257E-2,-1.1781571E-2,1.5770463E-2,-1.0318857E-2,-3.927269E-2,-4.1087948E-2,-4.5946877E-2,-4.1621562E-2],"split_indices":[2,0,0,0,0,0,0,0,0,0,0,0,0,0,0],"split_type":[0,0,0,0,0,0,0,0,0,0,0,0,0,0,0],"sum_hessian":[5.7287543E4,4.334386E4,1.3943684E4,3.8958667E3,3.9447992E4,7.1712144E3,6.772469E3,1.1055789E3,2.790288E3,3.6976297E4,2.471698E3,5.256236E3,1.9149789E3,5.401778E3,1.3706914E3],"tree_param":{"num_deleted":"0","num_feature":"5","num_nodes":"15","size_leaf_vector":"0"}},{"base_weights":[-5.5745102E-2,3.734436E-1,-1.393428E0,4.034876E-1,-3.8654843E-1,-1.9986522E-1,4.4454083E-1,-2.2833231E-1,-7.956296E-1],"categories":[],"categories_nodes":[],"categories_segments":[],"categories_sizes":[],"default_left":[true,true,false,true,true,false,false,false,false],"id":33,"left_children":[1,3,-1,5,7,-1,-1,-1,-1],"loss_changes":[3.2657799E4,9.834907E2,0E0,1.0262617E3,1.058513E2,0E0,0E0,0E0,0E0],"parents":[2147483647,0,0,1,1,3,3,4,4],"right_children":[2,4,-1,6,8,-1,-1,-1,-1],"split_conditions":[5E-1,9.3944633E-1,-4.180284E-2,8.823529E-2,9.8096883E-1,-5.9959567E-3,1.33362245E-2,-6.8499693E-3,-2.3868889E-2],"split_indices":[2,4,0,4,4,0,0,0,0],"split_type":[0,0,0,0,0,0,0,0,0],"sum_hessian":[5.6881484E4,4.3065016E4,1.381647E4,4.142776E4,1.637252E3,2.6389949E3,3.878877E4,1.181755E3,4.5549704E2],"tree_param":{"num_deleted":"0","num_feature":"5","num_nodes":"9","size_leaf_vector":"0"}},{"base_weights":[-5.3302493E-2,3.6261192E-1,-1.3788242E0,4.1745794E-1,-4.7258124E-1,-1.3887874E0,-1.2991471E0,-1.8996389E-1,4.9129245E-1,-3.5957554E-1,-1.0105872E0,-1.3315983E0,-1.4023792E0],"categories":[],"categories_nodes":[],"categories_segments":[],"categories_sizes":[],"default_left":[true,true,true,true,true,true,false,false,false,false,false,false,false],"id":34,"left_children":[1,3,5,7,9,11,-1,-1,-1,-1,-1,-1,-1],"loss_changes":[3.1201049E4,1.9734868E3,8.925781E0,1.8130688E3,1.6105713E2,7.4589844E0,0E0,0E0,0E0,0E0,0E0,0E0,0E0],"parents":[2147483647,0,0,1,1,2,2,3,3,4,4,5,5],"right_children":[2,4,6,8,10,12,-1,-1,-1,-1,-1,-1,-1],"split_conditions":[5E-1,8.75E-1,8.75E-1,1.6346154E-1,9.519231E-1,1.6346154E-1,-3.897441E-2,-5.6989165E-3,1.4738773E-2,-1.0787266E-2,-3.0317616E-2,-3.994795E-2,-4.2071372E-2],"split_indices":[2,1,1,1,1,1,0,0,0,0,0,0,0],"split_type":[0,0,0,0,0,0,0,0,0,0,0,0,0],"sum_hessian":[5.6593137E4,4.3077316E4,1.351582E4,4.0423273E4,2.6540422E3,1.1998979E4,1.5168414E3,4.3809004E3,3.604237E4,2.1947197E3,4.593225E2,2.3231208E3,9.675858E3],"tree_param":{"num_deleted":"0","num_feature":"5","num_nodes":"13","size_leaf_vector":"0"}},{"base_weights":[-5.178618E-2,-8.0303234E-1,1.5602379E-1,-9.074472E-1,-6.184282E-1,2.6068476E-1,-3.0045024E-1,-1.0621498E0,-8.597736E-1,-5.508611E-1,-9.4937396E-1,3.088594E-1,-4.9931353E-1,-1.5264663E-1,-7.567694E-1],"categories":[],"categories_nodes":[],"categories_segments":[],"categories_sizes":[],"default_left":[true,true,true,true,true,true,true,false,false,false,false,false,false,false,false],"id":35,"left_children":[1,3,5,7,9,11,13,-1,-1,-1,-1,-1,-1,-1,-1],"loss_changes":[8.759348E3,2.3378027E2,2.0998125E3,5.6342285E1,9.776123E1,1.3091846E3,5.5280054E2,0E0,0E0,0E0,0E0,0E0,0E0,0E0,0E0],"parents":[2147483647,0,0,1,1,2,2,3,3,4,4,5,5,6,6],"right_children":[2,4,6,8,10,12,14,-1,-1,-1,-1,-1,-1,-1,-1],"split_conditions":[-5.952381E-1,-7.380953E-1,7.380953E-1,-8.8095236E-1,7.7884614E-1,8.75E-1,1.3571429E0,-3.186449E-2,-2.5793206E-2,-1.6525833E-2,-2.8481219E-2,9.265782E-3,-1.4979405E-2,-4.579399E-3,-2.2703081E-2],"split_indices":[0,0,0,0,1,1,0,0,0,0,0,0,0,0,0],"split_type":[0,0,0,0,0,0,0,0,0,0,0,0,0,0,0],"sum_hessian":[5.6105984E4,1.2156523E4,4.3949465E4,7.7621924E3,4.394331E3,3.5752508E4,8.196955E3,1.8235228E3,5.9386694E3,3.6514937E3,7.4283716E2,3.3621883E4,2.1306243E3,6.1925103E3,2.0044443E3],"tree_param":{"num_deleted":"0","num_feature":"5","num_nodes":"15","size_leaf_vector":"0"}},{"base_weights":[-5.477387E-2,3.4773114E-1,-1.3620989E0,-5.2893054E-1,4.3516687E-1,-1.2824438E0,-1.4439641E0,-9.0699816E-1,-3.809644E-1,4.846574E-1,-3.8860384E-1,-1.2667608E0,-1.3245769E0,-1.4697628E0,-1.3365744E0],"categories":[],"categories_nodes":[],"categories_segments":[],"categories_sizes":[],"default_left":[true,true,true,true,true,true,true,false,false,false,false,false,false,false,false],"id":36,"left_children":[1,3,5,7,9,11,13,-1,-1,-1,-1,-1,-1,-1,-1],"loss_changes":[2.9563049E4,3.292891E3,8.4390625E1,2.1761414E2,1.5926602E3,2.7578125E0,1.6083008E1,0E0,0E0,0E0,0E0,0E0,0E0,0E0,0E0],"parents":[2147483647,0,0,1,1,2,2,3,3,4,4,5,5,6,6],"right_children":[2,4,6,8,10,12,14,-1,-1,-1,-1,-1,-1,-1,-1],"split_conditions":[5E-1,-7.380953E-1,-5.476191E-1,-8.8095236E-1,1.2142857E0,-6.904762E-1,9.2857146E-1,-2.7209945E-2,-1.1428932E-2,1.4539721E-2,-1.1658114E-2,-3.8002823E-2,-3.9737307E-2,-4.4092882E-2,-4.0097233E-2],"split_indices":[2,0,0,0,0,0,0,0,0,0,0,0,0,0,0],"split_type":[0,0,0,0,0,0,0,0,0,0,0,0,0,0,0],"sum_hessian":[5.617973E4,4.295522E4,1.322451E4,3.895228E3,3.9059992E4,6.7111763E3,6.5133335E3,1.0942317E3,2.8009963E3,3.6846727E4,2.2132668E3,4.9133687E3,1.7978075E3,5.24147E3,1.2718632E3],"tree_param":{"num_deleted":"0","num_feature":"5","num_nodes":"15","size_leaf_vector":"0"}},{"base_weights":[-5.2193806E-2,-7.7957284E-1,1.4672697E-1,-8.7666136E-1,-6.092515E-1,2.2033384E-1,-4.6949047E-1,-1.0302093E0,-8.294789E-1,-5.520139E-1,-8.90314E-1,-3.5361037E-1,2.8607997E-1,-3.1640193E-1,-8.807457E-1],"categories":[],"categories_nodes":[],"categories_segments":[],"categories_sizes":[],"default_left":[true,true,true,true,true,true,true,false,false,false,false,false,false,false,false],"id":37,"left_children":[1,3,5,7,9,11,13,-1,-1,-1,-1,-1,-1,-1,-1],"loss_changes":[8.060251E3,1.9728711E2,1.9842399E3,5.4330566E1,6.943445E1,1.4746595E3,2.9361E2,0E0,0E0,0E0,0E0,0E0,0E0,0E0,0E0],"parents":[2147483647,0,0,1,1,2,2,3,3,4,4,5,5,6,6],"right_children":[2,4,6,8,10,12,14,-1,-1,-1,-1,-1,-1,-1,-1],"split_conditions":[-5.952381E-1,-7.380953E-1,1.0238096E0,-8.8095236E-1,7.7884614E-1,1.6346154E-1,1.5E0,-3.0906279E-2,-2.4884367E-2,-1.6560417E-2,-2.6709419E-2,-1.0608311E-2,8.582399E-3,-9.492057E-3,-2.642237E-2],"split_indices":[0,0,0,0,1,1,0,0,0,0,0,0,0,0,0],"split_type":[0,0,0,0,0,0,0,0,0,0,0,0,0,0,0],"sum_hessian":[5.5704945E4,1.1961883E4,4.3743062E4,7.6162393E3,4.3456436E3,3.9076086E4,4.6669775E3,1.7853295E3,5.8309097E3,3.6128586E3,7.32785E2,4.0157134E3,3.506037E4,3.4022642E3,1.2647134E3],"tree_param":{"num_deleted":"0","num_feature":"5","num_nodes":"15","size_leaf_vector":"0"}},{"base_weights":[-5.1163204E-2,3.4035403E-1,-1.3459477E0,3.7065402E-1,-2.9028234E-1,-1.5477431E-1,4.1310102E-1,-1.1742746E-1,-5.936622E-1],"categories":[],"categories_nodes":[],"categories_segments":[],"categories_sizes":[],"default_left":[true,true,false,true,true,false,false,false,false],"id":38,"left_children":[1,3,-1,5,7,-1,-1,-1,-1],"loss_changes":[2.8043691E4,8.117627E2,0E0,9.0399414E2,1.0207745E2,0E0,0E0,0E0,0E0],"parents":[2147483647,0,0,1,1,3,3,4,4],"right_children":[2,4,-1,6,8,-1,-1,-1,-1],"split_conditions":[5E-1,9.290657E-1,-4.0378433E-2,9.8615915E-2,9.705882E-1,-4.6432293E-3,1.239303E-2,-3.5228238E-3,-1.7809866E-2],"split_indices":[2,4,0,4,4,0,0,0,0],"split_type":[0,0,0,0,0,0,0,0,0],"sum_hessian":[5.5318688E4,4.2475633E4,1.2843054E4,4.0528773E4,1.9468608E3,3.0292095E3,3.7499562E4,1.2411089E3,7.0575195E2],"tree_param":{"num_deleted":"0","num_feature":"5","num_nodes":"9","size_leaf_vector":"0"}},{"base_weights":[-4.920222E-2,-7.630321E-1,1.4320542E-1,-8.6575407E-1,-5.835182E-1,2.3195694E-1,-3.367613E-1,-1.0220594E0,-8.1717366E-1,-8.995825E-1,-5.461258E-1,-4.8099646E-1,2.6162517E-1,-2.3282987E-1,-9.239838E-1],"categories":[],"categories_nodes":[],"categories_segments":[],"categories_sizes":[],"default_left":[true,true,true,true,true,true,true,false,false,false,false,false,false,false,false],"id":39,"left_children":[1,3,5,7,9,11,13,-1,-1,-1,-1,-1,-1,-1,-1],"loss_changes":[7.5616216E3,2.1504053E2,1.847388E3,5.5603516E1,4.9824097E1,7.7427856E2,4.128393E2,0E0,0E0,0E0,0E0,0E0,0E0,0E0,0E0],"parents":[2147483647,0,0,1,1,2,2,3,3,4,4,5,5,6,6],"right_children":[2,4,6,8,10,12,14,-1,-1,-1,-1,-1,-1,-1,-1],"split_conditions":[-5.952381E-1,-7.380953E-1,8.333334E-1,-8.8095236E-1,1.22837365E-1,6.0553633E-2,1.5476191E0,-3.0661782E-2,-2.451521E-2,-2.6987474E-2,-1.6383775E-2,-1.4429893E-2,7.8487545E-3,-6.984896E-3,-2.7719514E-2],"split_indices":[0,0,0,0,4,4,0,0,0,0,0,0,0,0,0],"split_type":[0,0,0,0,0,0,0,0,0,0,0,0,0,0,0],"sum_hessian":[5.505335E4,1.1688012E4,4.336534E4,7.431636E3,4.256375E3,3.6598383E4,6.7669575E3,1.7573627E3,5.6742734E3,4.4784476E2,3.8085303E3,1.4615226E3,3.513686E4,5.750571E3,1.0163865E3],"tree_param":{"num_deleted":"0","num_feature":"5","num_nodes":"15","size_leaf_vector":"0"}},{"base_weights":[-4.72127E-2,3.3047873E-1,-1.3305384E0,3.8395375E-1,-4.7445342E-1,-1.3398601E0,-1.2551984E0,-2.0586751E-1,4.548645E-1,-3.7689126E-1,-9.4388956E-1,-1.2997735E0,-1.3564222E0],"categories":[],"categories_nodes":[],"categories_segments":[],"categories_sizes":[],"default_left":[true,true,true,true,true,true,false,false,false,false,false,false,false],"id":40,"left_children":[1,3,5,7,9,11,-1,-1,-1,-1,-1,-1,-1],"loss_changes":[2.6637494E4,1.8278335E3,7.095703E0,1.665375E3,1.208078E2,5.609375E0,0E0,0E0,0E0,0E0,0E0,0E0,0E0],"parents":[2147483647,0,0,1,1,2,2,3,3,4,4,5,5],"right_children":[2,4,6,8,10,12,-1,-1,-1,-1,-1,-1,-1],"split_conditions":[5E-1,8.75E-1,8.75E-1,1.6346154E-1,9.519231E-1,2.7884614E-1,-3.765595E-2,-6.176025E-3,1.3645935E-2,-1.1306738E-2,-2.8316686E-2,-3.8993202E-2,-4.0692665E-2],"split_indices":[2,1,1,1,1,1,0,0,0,0,0,0,0],"split_type":[0,0,0,0,0,0,0,0,0,0,0,0,0],"sum_hessian":[5.495463E4,4.245931E4,1.249532E4,3.981477E4,2.6445388E3,1.1104584E4,1.3907365E3,4.272776E3,3.5541992E4,2.1909915E3,4.5354733E2,3.269841E3,7.8347427E3],"tree_param":{"num_deleted":"0","num_feature":"5","num_nodes":"13","size_leaf_vector":"0"}},{"base_weights":[-4.825715E-2,3.1973833E-1,-1.3185313E0,-4.806333E-1,3.9844656E-1,-1.2394313E0,-1.3961202E0,-8.574206E-1,-3.3156878E-1,4.9696642E-1,1.4677146E-2,-1.2243905E0,-1.2792436E0,-1.4177226E0,-1.2832191E0],"categories":[],"categories_nodes":[],"categories_segments":[],"categories_sizes":[],"default_left":[true,true,true,true,true,true,true,false,false,false,false,false,false,false,false],"id":41,"left_children":[1,3,5,7,9,11,13,-1,-1,-1,-1,-1,-1,-1,-1],"loss_changes":[2.5548281E4,2.6697954E3,7.3615234E1,2.128479E2,1.4588018E3,2.0791016E0,1.3276367E1,0E0,0E0,0E0,0E0,0E0,0E0,0E0,0E0],"parents":[2147483647,0,0,1,1,2,2,3,3,4,4,5,5,6,6],"right_children":[2,4,6,8,10,12,14,-1,-1,-1,-1,-1,-1,-1,-1],"split_conditions":[5E-1,-7.380953E-1,-5.476191E-1,-8.8095236E-1,6.428572E-1,-6.904762E-1,1.0238096E0,-2.5722617E-2,-9.947063E-3,1.4908993E-2,4.4031438E-4,-3.6731713E-2,-3.8377307E-2,-4.2531677E-2,-3.8496573E-2],"split_indices":[2,0,0,0,0,0,0,0,0,0,0,0,0,0,0],"split_type":[0,0,0,0,0,0,0,0,0,0,0,0,0,0,0],"sum_hessian":[5.4652074E4,4.237646E4,1.2275613E4,3.7937107E3,3.858275E4,6.0870186E3,6.188595E3,1.0740653E3,2.7196453E3,3.0701008E4,7.881742E3,4.440998E3,1.6460206E3,5.1849526E3,1.0036422E3],"tree_param":{"num_deleted":"0","num_feature":"5","num_nodes":"15","size_leaf_vector":"0"}},{"base_weights":[-4.611968E-2,3.1135777E-1,-1.3057274E0,-4.5706785E-1,3.863217E-1,-1.2307022E0,-1.3788993E0,-6.841386E-1,-2.378504E-1,4.8544276E-1,4.390547E-3,-1.2163186E0,-1.2683526E0,-1.4015527E0,-1.2810484E0],"categories":[],"categories_nodes":[],"categories_segments":[],"categories_sizes":[],"default_left":[true,true,true,true,true,true,true,false,false,false,false,false,false,false,false],"id":42,"left_children":[1,3,5,7,9,11,13,-1,-1,-1,-1,-1,-1,-1,-1],"loss_changes":[2.4403488E4,2.431965E3,6.4072266E1,1.8664081E2,1.4561343E3,1.6660156E0,1.1629883E1,0E0,0E0,0E0,0E0,0E0,0E0,0E0,0E0],"parents":[2147483647,0,0,1,1,2,2,3,3,4,4,5,5,6,6],"right_children":[2,4,6,8,10,12,14,-1,-1,-1,-1,-1,-1,-1,-1],"split_conditions":[5E-1,-7.380953E-1,-5.476191E-1,-8.333334E-1,6.428572E-1,-6.904762E-1,9.2857146E-1,-2.0524157E-2,-7.135512E-3,1.4563282E-2,1.3171641E-4,-3.6489557E-2,-3.8050577E-2,-4.204658E-2,-3.843145E-2],"split_indices":[2,0,0,0,0,0,0,0,0,0,0,0,0,0,0],"split_type":[0,0,0,0,0,0,0,0,0,0,0,0,0,0,0],"sum_hessian":[5.419419E4,4.2214453E4,1.1979735E4,3.7517422E3,3.846271E4,5.9237607E3,6.055974E3,1.8418197E3,1.9099226E3,3.0537236E4,7.925476E3,4.3103774E3,1.6133832E3,4.9067095E3,1.1492646E3],"tree_param":{"num_deleted":"0","num_feature":"5","num_nodes":"15","size_leaf_vector":"0"}},{"base_weights":[-4.6900213E-2,3.0197838E-1,-1.2947396E0,-4.5439246E-1,3.7516418E-1,-1.222849E0,-1.3635789E0,-8.5446566E-1,-2.9938018E-1,4.218088E-1,-3.9270458E-1,-1.2087601E0,-1.2592996E0,-1.385169E0,-1.2702471E0],"categories":[],"categories_nodes":[],"categories_segments":[],"categories_sizes":[],"default_left":[true,true,true,true,true,true,true,false,false,false,false,false,false,false,false],"id":43,"left_children":[1,3,5,7,9,11,13,-1,-1,-1,-1,-1,-1,-1,-1],"loss_changes":[2.3546041E4,2.3399673E3,5.681836E1,2.3103351E2,1.3805503E3,1.4511719E0,1.0387695E1,0E0,0E0,0E0,0E0,0E0,0E0,0E0,0E0],"parents":[2147483647,0,0,1,1,2,2,3,3,4,4,5,5,6,6],"right_children":[2,4,6,8,10,12,14,-1,-1,-1,-1,-1,-1,-1,-1],"split_conditions":[5E-1,-7.380953E-1,-5.476191E-1,-8.8095236E-1,1.2142857E0,-6.904762E-1,9.2857146E-1,-2.5633968E-2,-8.981406E-3,1.26542635E-2,-1.1781137E-2,-3.6262803E-2,-3.777899E-2,-4.155507E-2,-3.8107414E-2],"split_indices":[2,0,0,0,0,0,0,0,0,0,0,0,0,0,0],"split_type":[0,0,0,0,0,0,0,0,0,0,0,0,0,0,0],"sum_hessian":[5.4084105E4,4.226747E4,1.181664E4,3.7284944E3,3.8538973E4,5.789394E3,6.027245E3,1.0399534E3,2.688541E3,3.633239E4,2.206582E3,4.200131E3,1.5892634E3,4.8836797E3,1.1435657E3],"tree_param":{"num_deleted":"0","num_feature":"5","num_nodes":"15","size_leaf_vector":"0"}},{"base_weights":[-4.848708E-2,2.9013783E-1,-1.2821188E0,-2.962535E-1,3.2183182E-1,-6.470451E-1,-1.4371884E-1,3.7002417E-1,-1.4113891E-1],"categories":[],"categories_nodes":[],"categories_segments":[],"categories_sizes":[],"default_left":[true,true,false,true,true,false,false,false,false],"id":44,"left_children":[1,3,-1,5,7,-1,-1,-1,-1],"loss_changes":[2.2350092E4,7.8028955E2,0E0,1.1511682E2,8.8866895E2,0E0,0E0,0E0,0E0],"parents":[2147483647,0,0,1,1,3,3,4,4],"right_children":[2,4,-1,6,8,-1,-1,-1,-1],"split_conditions":[5E-1,7.4394464E-2,-3.8463563E-2,2.5951557E-2,8.7716264E-1,-1.9411352E-2,-4.311565E-3,1.1100725E-2,-4.2341673E-3],"split_indices":[2,4,0,4,4,0,0,0,0],"split_type":[0,0,0,0,0,0,0,0,0],"sum_hessian":[5.350071E4,4.197859E4,1.152212E4,2.1521375E3,3.9826453E4,6.5122986E2,1.5009076E3,3.6071805E4,3.7546484E3],"tree_param":{"num_deleted":"0","num_feature":"5","num_nodes":"9","size_leaf_vector":"0"}},{"base_weights":[-4.065126E-2,-6.915025E-1,1.2670957E-1,-7.8820205E-1,-5.240479E-1,1.818291E-1,-5.503855E-1,-9.475287E-1,-7.399073E-1,-8.8055676E-1,-4.9184164E-1,2.2879887E-1,-2.642367E-1,-4.0689167E-1,-8.7508106E-1],"categories":[],"categories_nodes":[],"categories_segments":[],"categories_sizes":[],"default_left":[true,true,true,true,true,true,true,false,false,false,false,false,false,false,false],"id":45,"left_children":[1,3,5,7,9,11,13,-1,-1,-1,-1,-1,-1,-1,-1],"loss_changes":[5.8057095E3,1.7612158E2,1.5824148E3,5.2461914E1,4.5424194E1,8.214979E2,1.4835663E2,0E0,0E0,0E0,0E0,0E0,0E0,0E0,0E0],"parents":[2147483647,0,0,1,1,2,2,3,3,4,4,5,5,6,6],"right_children":[2,4,6,8,10,12,14,-1,-1,-1,-1,-1,-1,-1,-1],"split_conditions":[-5.952381E-1,-7.380953E-1,1.1666667E0,-8.8095236E-1,9.8615915E-2,8.7024224E-1,1.5476191E0,-2.8425861E-2,-2.2197219E-2,-2.6416702E-2,-1.4755249E-2,6.8639657E-3,-7.9271E-3,-1.220675E-2,-2.6252432E-2],"split_indices":[0,0,0,0,4,4,0,0,0,0,0,0,0,0,0],"split_type":[0,0,0,0,0,0,0,0,0,0,0,0,0,0,0],"sum_hessian":[5.3297277E4,1.0901027E4,4.239625E4,6.908114E3,3.9929136E3,3.920543E4,3.1908215E3,1.6025618E3,5.3055522E3,3.2864276E2,3.664271E3,3.5470906E4,3.7345225E3,2.21444E3,9.763816E2],"tree_param":{"num_deleted":"0","num_feature":"5","num_nodes":"15","size_leaf_vector":"0"}},{"base_weights":[-4.1455913E-2,2.8565323E-1,-1.2700398E0,-4.245651E-1,3.547615E-1,-1.2021602E0,-1.3344035E0,-8.0517656E-1,-2.8091425E-1,4.565009E-1,8.58285E-3,-1.1883744E0,-1.2375647E0,-1.3545233E0,-1.247352E0],"categories":[],"categories_nodes":[],"categories_segments":[],"categories_sizes":[],"default_left":[true,true,true,true,true,true,true,false,false,false,false,false,false,false,false],"id":46,"left_children":[1,3,5,7,9,11,13,-1,-1,-1,-1,-1,-1,-1,-1],"loss_changes":[2.1384473E4,2.062704E3,4.7277344E1,2.0354224E2,1.3488062E3,1.1923828E0,8.353516E0,0E0,0E0,0E0,0E0,0E0,0E0,0E0,0E0],"parents":[2147483647,0,0,1,1,2,2,3,3,4,4,5,5,6,6],"right_children":[2,4,6,8,10,12,14,-1,-1,-1,-1,-1,-1,-1,-1],"split_conditions":[5E-1,-7.380953E-1,-5.476191E-1,-8.8095236E-1,5.952381E-1,-6.904762E-1,9.2857146E-1,-2.4155296E-2,-8.427427E-3,1.3695027E-2,2.574855E-4,-3.5651233E-2,-3.712694E-2,-4.0635698E-2,-3.742056E-2],"split_indices":[2,0,0,0,0,0,0,0,0,0,0,0,0,0,0],"split_type":[0,0,0,0,0,0,0,0,0,0,0,0,0,0,0],"sum_hessian":[5.3209055E4,4.2021613E4,1.1187441E4,3.725892E3,3.8295723E4,5.4545864E3,5.7328555E3,1.0196538E3,2.7062383E3,2.9597049E4,8.698673E3,3.9507793E3,1.5038068E3,4.6447715E3,1.0880841E3],"tree_param":{"num_deleted":"0","num_feature":"5","num_nodes":"15","size_leaf_vector":"0"}},{"base_weights":[-4.0876362E-2,1.1450617E-2,-7.1279484E-1,-5.359556E-1,8.929743E-2,-6.136727E-1,-1.1024561E0,-3.4639907E-1,-7.2811484E-1,3.3300358E-1,-1.932122E-2,-6.4806086E-1,-1.536643E-1,-1.1216242E0,-7.19817E-1],"categories":[],"categories_nodes":[],"categories_segments":[],"categories_sizes":[],"default_left":[true,true,true,true,true,true,true,false,false,false,false,false,false,false,false],"id":47,"left_children":[1,3,5,7,9,11,13,-1,-1,-1,-1,-1,-1,-1,-1],"loss_changes":[1.854022E3,2.0848308E3,1.464768E2,2.2162134E2,1.1338256E3,4.7982178E1,4.8502197E0,0E0,0E0,0E0,0E0,0E0,0E0,0E0,0E0],"parents":[2147483647,0,0,1,1,2,2,3,3,4,4,5,5,6,6],"right_children":[2,4,6,8,10,12,14,-1,-1,-1,-1,-1,-1,-1,-1],"split_conditions":[8.75E-1,1.6346154E-1,9.519231E-1,1.4423078E-1,5.2884614E-1,9.326923E-1,9.7115386E-1,-1.0391972E-2,-2.1843445E-2,9.990107E-3,-5.796366E-4,-1.9441824E-2,-4.609929E-3,-3.3648726E-2,-2.159451E-2],"split_indices":[1,1,1,1,1,1,1,0,0,0,0,0,0,0,0],"split_type":[0,0,0,0,0,0,0,0,0,0,0,0,0,0,0],"sum_hessian":[5.2730574E4,4.8921684E4,3.80889E3,6.090237E3,4.2831445E4,3.0385242E3,7.7036566E2,3.0672917E3,3.022945E3,1.3203924E4,2.9627523E4,2.8267969E3,2.1172734E2,7.3177637E2,3.8589294E1],"tree_param":{"num_deleted":"0","num_feature":"5","num_nodes":"15","size_leaf_vector":"0"}},{"base_weights":[-3.9156944E-2,-6.000967E-1,1.3711293E-1,-7.285198E-1,-3.49824E-1,2.6505932E-1,-1.8403867E-1,-8.5109043E-1,-6.579832E-1,-3.0539125E-1,-8.0515254E-1,3.0891174E-1,-4.5716354E-1,-8.947893E-2,-6.6161436E-1],"categories":[],"categories_nodes":[],"categories_segments":[],"categories_sizes":[],"default_left":[true,true,true,true,true,true,true,false,false,false,false,false,false,false,false],"id":48,"left_children":[1,3,5,7,9,11,13,-1,-1,-1,-1,-1,-1,-1,-1],"loss_changes":[5.200588E3,4.039502E2,1.6445095E3,7.128906E1,8.607605E1,9.0655225E2,5.148649E2,0E0,0E0,0E0,0E0,0E0,0E0,0E0,0E0],"parents":[2147483647,0,0,1,1,2,2,3,3,4,4,5,5,6,6],"right_children":[2,4,6,8,10,12,14,-1,-1,-1,-1,-1,-1,-1,-1],"split_conditions":[-5E-1,-6.904762E-1,5.476191E-1,-8.333334E-1,8.557693E-1,8.75E-1,1.3571429E0,-2.5532713E-2,-1.9739496E-2,-9.161738E-3,-2.4154576E-2,9.267352E-3,-1.3714906E-2,-2.6843678E-3,-1.984843E-2],"split_indices":[0,0,0,0,1,1,0,0,0,0,0,0,0,0,0],"split_type":[0,0,0,0,0,0,0,0,0,0,0,0,0,0,0],"sum_hessian":[5.2594824E4,1.2575064E4,4.0019758E4,8.3093545E3,4.2657104E3,2.8618398E4,1.1401359E4,3.031129E3,5.278225E3,3.887977E3,3.7773337E2,2.6980736E4,1.637662E3,9.517989E3,1.8833696E3],"tree_param":{"num_deleted":"0","num_feature":"5","num_nodes":"15","size_leaf_vector":"0"}},{"base_weights":[-3.435622E-2,2.8366986E-1,-1.2588714E0,-3.8656816E-1,3.472957E-1,-1.1919272E0,-1.3216562E0,-7.7386284E-1,-2.4286371E-1,4.4667602E-1,1.1239988E-2,-1.178356E0,-1.2258894E0,-1.3413647E0,-1.2352294E0],"categories":[],"categories_nodes":[],"categories_segments":[],"categories_sizes":[],"default_left":[true,true,true,true,true,true,true,false,false,false,false,true,true,false,false],"id":49,"left_children":[1,3,5,7,9,-1,13,-1,-1,-1,-1,-1,-1,-1,-1],"loss_changes":[2.0497227E4,1.7819343E3,4.4033203E1,2.014549E2,1.2744595E3,9.8095703E-1,7.866211E0,0E0,0E0,0E0,0E0,0E0,0E0,0E0,0E0],"parents":[2147483647,0,0,1,1,2,2,3,3,4,4,5,5,6,6],"right_children":[2,4,6,8,10,-1,14,-1,-1,-1,-1,-1,-1,-1,-1],"split_conditions":[5E-1,-7.380953E-1,-5.476191E-1,-8.8095236E-1,5.952381E-1,-3.5757814E-2,9.2857146E-1,-2.3215884E-2,-7.285911E-3,1.340028E-2,3.3719963E-4,-3.535068E-2,-3.6776684E-2,-4.024094E-2,-3.7056882E-2],"split_indices":[2,0,0,0,0,0,0,0,0,0,0,2147483647,2147483647,0,0],"split_type":[0,0,0,0,0,0,0,0,0,0,0,0,0,0,0],"sum_hessian":[5.2632297E4,4.1781695E4,1.0850603E4,3.6220234E3,3.815967E4,5.261024E3,5.5895786E3,9.790426E2,2.642981E3,2.9450168E4,8.709502E3,3.7844658E3,1.4765583E3,4.5398125E3,1.0497657E3],"tree_param":{"num_deleted":"2","num_feature":"5","num_nodes":"15","size_leaf_vector":"0"}},{"base_weights":[-3.6941037E-2,-6.4255714E-1,1.14016436E-1,-7.3638946E-1,-4.8369104E-1,1.9524044E-1,-2.7999896E-1,-8.9625657E-1,-6.879591E-1,-6.7581654E-1,-3.984996E-1,-3.2813126E-1,2.5533485E-1,-1.3414624E-1,-6.271454E-1],"categories":[],"categories_nodes":[],"categories_segments":[],"categories_sizes":[],"default_left":[true,true,true,true,true,true,true,false,false,false,false,false,false,false,false],"id":50,"left_children":[1,3,5,7,9,11,13,-1,-1,-1,-1,-1,-1,-1,-1],"loss_changes":[4.7665103E3,1.547168E2,1.3357102E3,5.0004395E1,6.300244E1,1.0883854E3,3.610937E2,0E0,0E0,0E0,0E0,0E0,0E0,0E0,0E0],"parents":[2147483647,0,0,1,1,2,2,3,3,4,4,5,5,6,6],"right_children":[2,4,6,8,10,12,14,-1,-1,-1,-1,-1,-1,-1,-1],"split_conditions":[-5.952381E-1,-7.380953E-1,7.8571427E-1,-8.8095236E-1,2.9807693E-1,1.6346154E-1,1.3095238E0,-2.6887696E-2,-2.0638771E-2,-2.0274496E-2,-1.1954988E-2,-9.843937E-3,7.6600453E-3,-4.0243873E-3,-1.8814363E-2],"split_indices":[0,0,0,0,1,1,0,0,0,0,0,0,0,0,0],"split_type":[0,0,0,0,0,0,0,0,0,0,0,0,0,0,0],"sum_hessian":[5.2135492E4,1.0401831E4,4.1733664E4,6.5371235E3,3.8647078E3,3.460131E4,7.1323555E3,1.5158497E3,5.0212734E3,1.185104E3,2.6796038E3,3.5633208E3,3.1037986E4,5.02324E3,2.1091152E3],"tree_param":{"num_deleted":"0","num_feature":"5","num_nodes":"15","size_leaf_vector":"0"}},{"base_weights":[-3.615387E-2,2.7261174E-1,-1.2497833E0,-3.0575886E-1,3.424169E-1,-1.1761138E0,-1.3085519E0,-5.9456384E-1,-1.1709896E-1,4.3253538E-1,9.0772975E-3,-1.3249066E0,-1.226991E0],"categories":[],"categories_nodes":[],"categories_segments":[],"categories_sizes":[],"default_left":[true,true,true,true,true,false,true,false,false,false,false,false,false],"id":51,"left_children":[1,3,5,7,9,-1,11,-1,-1,-1,-1,-1,-1],"loss_changes":[1.944623E4,1.6703252E3,4.4027344E1,2.4270908E2,1.108915E3,0E0,6.171875E0,0E0,0E0,0E0,0E0,0E0,0E0],"parents":[2147483647,0,0,1,1,2,2,3,3,4,4,6,6],"right_children":[2,4,6,8,10,-1,12,-1,-1,-1,-1,-1,-1],"split_conditions":[5E-1,-6.904762E-1,-5.952381E-1,-8.333334E-1,6.428572E-1,-3.5283413E-2,9.2857146E-1,-1.7836915E-2,-3.5129685E-3,1.2976062E-2,2.7231892E-4,-3.9747197E-2,-3.680973E-2],"split_indices":[2,0,0,0,0,0,0,0,0,0,0,0,0],"split_type":[0,0,0,0,0,0,0,0,0,0,0,0,0],"sum_hessian":[5.1892477E4,4.1368484E4,1.0523991E4,4.4548066E3,3.691368E4,4.6792827E3,5.844708E3,1.7593702E3,2.6954363E3,2.9057639E4,7.8560405E3,4.8557754E3,9.8893274E2],"tree_param":{"num_deleted":"0","num_feature":"5","num_nodes":"13","size_leaf_vector":"0"}},{"base_weights":[-3.7203632E-2,-5.9159124E-1,1.1539171E-1,-7.0761865E-1,-4.360002E-1,1.6273388E-1,-5.825909E-1,-8.80544E-1,-6.552191E-1,-3.9084092E-1,-8.8177776E-1,-3.8170785E-1,2.3094493E-1,-4.8939452E-1,-9.798532E-1],"categories":[],"categories_nodes":[],"categories_segments":[],"categories_sizes":[],"default_left":[true,true,true,true,true,true,true,false,false,false,false,false,false,false,false],"id":52,"left_children":[1,3,5,7,9,11,13,-1,-1,-1,-1,-1,-1,-1,-1],"loss_changes":[4.3755913E3,2.0123071E2,1.3403313E3,5.7354736E1,9.570978E1,1.4106846E3,9.491083E1,0E0,0E0,0E0,0E0,0E0,0E0,0E0,0E0],"parents":[2147483647,0,0,1,1,2,2,3,3,4,4,5,5,6,6],"right_children":[2,4,6,8,10,12,14,-1,-1,-1,-1,-1,-1,-1,-1],"split_conditions":[-5.476191E-1,-7.380953E-1,8.75E-1,-8.8095236E-1,8.557693E-1,1.6346154E-1,9.519231E-1,-2.641632E-2,-1.9656572E-2,-1.1725227E-2,-2.6453333E-2,-1.1451235E-2,6.928348E-3,-1.4681835E-2,-2.9395595E-2],"split_indices":[0,0,1,0,1,1,1,0,0,0,0,0,0,0,0],"split_type":[0,0,0,0,0,0,0,0,0,0,0,0,0,0,0],"sum_hessian":[5.1720984E4,1.1162846E4,4.0558137E4,6.392376E3,4.77047E3,3.798265E4,2.575488E3,1.4828777E3,4.9094985E3,4.333358E3,4.3711194E2,4.2283706E3,3.3754277E4,2.0879048E3,4.8758334E2],"tree_param":{"num_deleted":"0","num_feature":"5","num_nodes":"15","size_leaf_vector":"0"}},{"base_weights":[-3.5316784E-2,2.6322338E-1,-1.2382716E0,2.882105E-1,-4.1329202E-1,-2.8599387E-1,3.208071E-1,-2.1639566E-1,-6.960615E-1],"categories":[],"categories_nodes":[],"categories_segments":[],"categories_sizes":[],"default_left":[true,true,false,true,true,false,false,false,false],"id":53,"left_children":[1,3,-1,5,7,-1,-1,-1,-1],"loss_changes":[1.845351E4,6.9602026E2,0E0,7.4319116E2,8.151375E1,0E0,0E0,0E0,0E0],"parents":[2147483647,0,0,1,1,3,3,4,4],"right_children":[2,4,-1,6,8,-1,-1,-1,-1],"split_conditions":[5E-1,9.429066E-1,-3.7148148E-2,7.4394464E-2,9.7404844E-1,-8.579816E-3,9.624213E-3,-6.4918697E-3,-2.0881845E-2],"split_indices":[2,4,0,4,4,0,0,0,0],"split_type":[0,0,0,0,0,0,0,0,0],"sum_hessian":[5.138197E4,4.116639E4,1.021558E4,3.970062E4,1.4657711E3,2.1322493E3,3.756837E4,8.6513245E2,6.006386E2],"tree_param":{"num_deleted":"0","num_feature":"5","num_nodes":"9","size_leaf_vector":"0"}},{"base_weights":[-2.8716462E-2,1.9536909E-2,-6.666668E-1,-4.6771172E-1,8.851305E-2,-5.869563E-1,-9.9711025E-1,-2.6374555E-1,-6.725548E-1,3.3620706E-1,-2.1747604E-2,-6.157266E-1,-1.8468599E-1,-1.0137588E0,-6.293332E-1],"categories":[],"categories_nodes":[],"categories_segments":[],"categories_sizes":[],"default_left":[true,true,true,true,true,true,true,false,false,false,false,false,false,false,false],"id":54,"left_children":[1,3,5,7,9,11,13,-1,-1,-1,-1,-1,-1,-1,-1],"loss_changes":[1.5765743E3,1.600294E3,9.427551E1,2.4652795E2,1.1391658E3,3.3494873E1,3.638794E0,0E0,0E0,0E0,0E0,0E0,0E0,0E0,0E0],"parents":[2147483647,0,0,1,1,2,2,3,3,4,4,5,5,6,6],"right_children":[2,4,6,8,10,12,14,-1,-1,-1,-1,-1,-1,-1,-1],"split_conditions":[8.75E-1,1.6346154E-1,9.519231E-1,1.4423078E-1,5.2884614E-1,9.326923E-1,9.7115386E-1,-7.912367E-3,-2.0176644E-2,1.0086211E-2,-6.5242813E-4,-1.8471798E-2,-5.5405796E-3,-3.0412763E-2,-1.8879995E-2],"split_indices":[1,1,1,1,1,1,1,0,0,0,0,0,0,0,0],"split_type":[0,0,0,0,0,0,0,0,0,0,0,0,0,0,0],"sum_hessian":[5.1213902E4,4.7613477E4,3.6004253E3,5.9037197E3,4.1709758E4,2.9029453E3,6.974798E2,2.959338E3,2.9443818E3,1.2847211E4,2.8862547E4,2.7086902E3,1.9425528E2,6.6559326E2,3.1886562E1],"tree_param":{"num_deleted":"0","num_feature":"5","num_nodes":"15","size_leaf_vector":"0"}},{"base_weights":[-3.2064587E-2,2.5878665E-1,-1.2311993E0,3.072895E-1,-4.6264222E-1,-1.1657267E0,-1.2899199E0,-2.7656156E-1,3.6001727E-1,-3.627874E-1,-9.465859E-1,-1.1525997E0,-1.1985285E0,-1.306465E0,-1.2060906E0],"categories":[],"categories_nodes":[],"categories_segments":[],"categories_sizes":[],"default_left":[true,true,true,true,true,true,true,false,false,false,false,true,true,false,false],"id":55,"left_children":[1,3,5,7,9,-1,13,-1,-1,-1,-1,-1,-1,-1,-1],"loss_changes":[1.7833088E4,1.440052E3,3.686914E1,1.187135E3,1.2494769E2,6.5478516E-1,5.709961E0,0E0,0E0,0E0,0E0,0E0,0E0,0E0,0E0],"parents":[2147483647,0,0,1,1,2,2,3,3,4,4,5,5,6,6],"right_children":[2,4,6,8,10,-1,14,-1,-1,-1,-1,-1,-1,-1,-1],"split_conditions":[5E-1,8.75E-1,-5.476191E-1,-7.380953E-1,9.519231E-1,-3.49718E-2,9.7619045E-1,-8.296846E-3,1.0800518E-2,-1.0883622E-2,-2.8397577E-2,-3.457799E-2,-3.5955854E-2,-3.919395E-2,-3.6182716E-2],"split_indices":[2,1,0,0,1,0,0,0,0,0,0,2147483647,2147483647,0,0],"split_type":[0,0,0,0,0,0,0,0,0,0,0,0,0,0,0],"sum_hessian":[5.112948E4,4.1149434E4,9.980049E3,3.8557707E4,2.5917246E3,4.7285894E3,5.25146E3,3.193379E3,3.536433E4,2.149878E3,4.4184668E2,3.40292E3,1.3256692E3,4.3736562E3,8.778036E2],"tree_param":{"num_deleted":"2","num_feature":"5","num_nodes":"15","size_leaf_vector":"0"}},{"base_weights":[-2.939195E-2,-5.954249E-1,1.0665246E-1,-7.1985847E-1,-4.9290904E-1,1.9937873E-1,-2.0860678E-1,-8.3619654E-1,-6.639767E-1,-6.9117236E-1,-3.9998123E-1,2.3930521E-1,-4.4165066E-1,-1.0435251E-1,-6.297529E-1],"categories":[],"categories_nodes":[],"categories_segments":[],"categories_sizes":[],"default_left":[true,true,true,true,true,true,true,false,false,false,false,false,false,false,false],"id":56,"left_children":[1,3,5,7,9,11,13,-1,-1,-1,-1,-1,-1,-1,-1],"loss_changes":[3.9175923E3,1.25398926E2,1.1990605E3,2.8380371E1,9.936572E1,8.1129956E2,4.0925424E2,0E0,0E0,0E0,0E0,0E0,0E0,0E0,0E0],"parents":[2147483647,0,0,1,1,2,2,3,3,4,4,5,5,6,6],"right_children":[2,4,6,8,10,12,14,-1,-1,-1,-1,-1,-1,-1,-1],"split_conditions":[-5.952381E-1,-7.8571427E-1,6.428572E-1,-8.8095236E-1,2.9807693E-1,8.75E-1,1.3571429E0,-2.5085896E-2,-1.9919302E-2,-2.073517E-2,-1.1999437E-2,7.1791564E-3,-1.3249519E-2,-3.1305752E-3,-1.8892586E-2],"split_indices":[0,0,0,0,1,1,0,0,0,0,0,0,0,0,0],"split_type":[0,0,0,0,0,0,0,0,0,0,0,0,0,0,0],"sum_hessian":[5.087228E4,9.857076E3,4.1015203E4,4.4498433E3,5.4072334E3,3.1693621E4,9.321583E3,1.4393508E3,3.0104922E3,1.7235557E3,3.6836775E3,2.983592E4,1.8577024E3,7.4729175E3,1.848665E3],"tree_param":{"num_deleted":"0","num_feature":"5","num_nodes":"15","size_leaf_vector":"0"}},{"base_weights":[-2.7714245E-2,2.566341E-1,-1.2211255E0,-2.5789946E-1,3.1764197E-1,-1.1560498E0,-1.2784224E0,-5.42935E-1,-7.444808E-2,4.251269E-1,4.804103E-2,-1.1426085E0,-1.188703E0,-1.2952862E0,-1.2006645E0],"categories":[],"categories_nodes":[],"categories_segments":[],"categories_sizes":[],"default_left":[true,true,true,true,true,true,true,false,false,false,false,true,true,false,false],"id":57,"left_children":[1,3,5,7,9,-1,13,-1,-1,-1,-1,-1,-1,-1,-1],"loss_changes":[1.7165963E4,1.2824543E3,3.481543E1,2.2642355E2,1.0583215E3,6.464844E-1,5.220703E0,0E0,0E0,0E0,0E0,0E0,0E0,0E0,0E0],"parents":[2147483647,0,0,1,1,2,2,3,3,4,4,5,5,6,6],"right_children":[2,4,6,8,10,-1,14,-1,-1,-1,-1,-1,-1,-1,-1],"split_conditions":[5E-1,-6.904762E-1,-5.476191E-1,-8.333334E-1,5E-1,-3.4681495E-2,9.2857146E-1,-1.628805E-2,-2.2334424E-3,1.2753807E-2,1.4412309E-3,-3.4278255E-2,-3.5661086E-2,-3.8858585E-2,-3.6019936E-2],"split_indices":[2,0,0,0,0,0,0,0,0,0,0,2147483647,2147483647,0,0],"split_type":[0,0,0,0,0,0,0,0,0,0,0,0,0,0,0],"sum_hessian":[5.058373E4,4.0851117E4,9.732613E3,4.3299106E3,3.6521207E4,4.566885E3,5.165728E3,1.6947507E3,2.63516E3,2.6110752E4,1.0410454E4,3.260654E3,1.3062308E3,4.2322046E3,9.335235E2],"tree_param":{"num_deleted":"2","num_feature":"5","num_nodes":"15","size_leaf_vector":"0"}},{"base_weights":[-2.2875566E-2,2.541191E-1,-1.2127157E0,2.990985E-1,-4.24666E-1,-1.1456105E0,-1.2631719E0,-2.2196455E-1,3.6405468E-1,-3.2442835E-1,-9.041371E-1,-1.2722296E0,-1.1498387E0],"categories":[],"categories_nodes":[],"categories_segments":[],"categories_sizes":[],"default_left":[true,true,true,true,true,false,true,false,false,false,false,false,false],"id":58,"left_children":[1,3,5,7,9,-1,11,-1,-1,-1,-1,-1,-1],"loss_changes":[1.6589646E4,1.2467383E3,3.0736328E1,1.2961785E3,1.21680145E2,0E0,4.0966797E0,0E0,0E0,0E0,0E0,0E0,0E0],"parents":[2147483647,0,0,1,1,2,2,3,3,4,4,6,6],"right_children":[2,4,6,8,10,-1,12,-1,-1,-1,-1,-1,-1],"split_conditions":[5E-1,8.75E-1,-5.952381E-1,1.6346154E-1,9.519231E-1,-3.4368314E-2,1.3095238E0,-6.6589364E-3,1.092164E-2,-9.73285E-3,-2.7124112E-2,-3.8166884E-2,-3.449516E-2],"split_indices":[2,1,0,1,1,0,0,0,0,0,0,0,0],"split_type":[0,0,0,0,0,0,0,0,0,0,0,0,0],"sum_hessian":[5.0333875E4,4.0829547E4,9.504327E3,3.829266E4,2.5368862E3,4.0893313E3,5.414996E3,4.2442095E3,3.404845E4,2.0996191E3,4.3726715E2,5.004788E3,4.1020804E2],"tree_param":{"num_deleted":"0","num_feature":"5","num_nodes":"13","size_leaf_vector":"0"}},{"base_weights":[-2.8496042E-2,2.3904757E-1,-1.2050762E0,-3.0617723E-1,2.9020768E-1,-1.1408176E0,-1.253772E0,-6.4840597E-1,-1.8273196E-1,3.8777348E-1,4.6238913E-3,-1.2676558E0,-1.1849597E0],"categories":[],"categories_nodes":[],"categories_segments":[],"categories_sizes":[],"default_left":[true,true,true,true,true,false,true,false,false,false,false,false,false],"id":59,"left_children":[1,3,5,7,9,-1,11,-1,-1,-1,-1,-1,-1],"loss_changes":[1.5717155E4,1.1347937E3,2.7513672E1,1.4732724E2,1.0362424E3,0E0,3.5166016E0,0E0,0E0,0E0,0E0,0E0,0E0],"parents":[2147483647,0,0,1,1,2,2,3,3,4,4,6,6],"right_children":[2,4,6,8,10,-1,12,-1,-1,-1,-1,-1,-1],"split_conditions":[5E-1,-7.380953E-1,-5.952381E-1,-8.8095236E-1,5.476191E-1,-3.422453E-2,9.2857146E-1,-1.9452179E-2,-5.4819584E-3,1.1633204E-2,1.3871674E-4,-3.8029674E-2,-3.5548788E-2],"split_indices":[2,0,0,0,0,0,0,0,0,0,0,0,0],"split_type":[0,0,0,0,0,0,0,0,0,0,0,0,0],"sum_hessian":[4.9927652E4,4.0678523E4,9.249129E3,3.4891267E3,3.7189395E4,3.9979226E3,5.251206E3,9.2380334E2,2.5653235E3,2.7719164E4,9.470231E3,4.355089E3,8.9611707E2],"tree_param":{"num_deleted":"0","num_feature":"5","num_nodes":"13","size_leaf_vector":"0"}},{"base_weights":[-2.722646E-2,-5.015262E-1,1.1229911E-1,-5.9212655E-1,-2.2896963E-1,2.1859689E-1,-1.5179442E-1,-7.362296E-1,-5.1963425E-1,-1.657862E-1,-5.797432E-1,-2.3711646E-1,2.7040046E-1,-6.062158E-2,-5.547847E-1],"categories":[],"categories_nodes":[],"categories_segments":[],"categories_sizes":[],"default_left":[true,true,true,true,true,true,true,false,false,false,false,false,false,false,false],"id":60,"left_children":[1,3,5,7,9,11,13,-1,-1,-1,-1,-1,-1,-1,-1],"loss_changes":[3.2855754E3,2.7854053E2,1.076986E3,8.809009E1,6.2339203E1,6.458218E2,4.045063E2,0E0,0E0,0E0,0E0,0E0,0E0,0E0,0E0],"parents":[2147483647,0,0,1,1,2,2,3,3,4,4,5,5,6,6],"right_children":[2,4,6,8,10,12,14,-1,-1,-1,-1,-1,-1,-1,-1],"split_conditions":[-5E-1,-6.428572E-1,5.476191E-1,2.9807693E-1,7.7884614E-1,1.6346154E-1,1.3095238E0,-2.2086887E-2,-1.5589027E-2,-4.973586E-3,-1.7392296E-2,-7.1134935E-3,8.112013E-3,-1.8186473E-3,-1.6643541E-2],"split_indices":[0,0,0,1,1,1,0,0,0,0,0,0,0,0,0],"split_type":[0,0,0,0,0,0,0,0,0,0,0,0,0,0,0],"sum_hessian":[4.9646496E4,1.1284308E4,3.8362188E4,8.46822E3,2.8160874E3,2.735283E4,1.1009356E4,2.8311633E3,5.6370566E3,2.3875078E3,4.2857944E2,2.7916094E3,2.456122E4,8.979074E3,2.0302823E3],"tree_param":{"num_deleted":"0","num_feature":"5","num_nodes":"15","size_leaf_vector":"0"}},{"base_weights":[-2.755186E-2,2.3191339E-1,-1.1971363E0,2.751459E-1,-4.2111477E-1,-1.2038743E0,-1.1361504E0,-2.044502E-1,3.3589634E-1,-3.2667005E-1,-8.7676996E-1,-1.1546676E0,-1.2142861E0],"categories":[],"categories_nodes":[],"categories_segments":[],"categories_sizes":[],"default_left":[true,true,true,true,true,true,false,false,false,false,false,false,false],"id":61,"left_children":[1,3,5,7,9,11,-1,-1,-1,-1,-1,-1,-1],"loss_changes":[1.5051629E4,1.1461567E3,2.3330078E0,1.1093716E3,1.08200775E2,2.7441406E0,0E0,0E0,0E0,0E0,0E0,0E0,0E0],"parents":[2147483647,0,0,1,1,2,2,3,3,4,4,5,5],"right_children":[2,4,6,8,10,12,-1,-1,-1,-1,-1,-1,-1],"split_conditions":[5E-1,8.75E-1,8.75E-1,1.6346154E-1,9.519231E-1,1.6346154E-1,-3.408451E-2,-6.133506E-3,1.007689E-2,-9.800102E-3,-2.6303098E-2,-3.464003E-2,-3.6428582E-2],"split_indices":[2,1,1,1,1,1,0,0,0,0,0,0,0],"split_type":[0,0,0,0,0,0,0,0,0,0,0,0,0],"sum_hessian":[4.9597062E4,4.0592637E4,9.00443E3,3.8072684E4,2.519952E3,8.0916714E3,9.127583E2,4.280196E3,3.379249E4,2.0887324E3,4.3121942E2,1.432662E3,6.6590093E3],"tree_param":{"num_deleted":"0","num_feature":"5","num_nodes":"13","size_leaf_vector":"0"}},{"base_weights":[-3.0401064E-2,-4.940003E-1,1.0432977E-1,-6.0491747E-1,-2.8917745E-1,2.2020707E-1,-1.4927217E-1,-7.3278767E-1,-5.397986E-1,-2.5235033E-1,-7.9235846E-1,-2.081289E-1,2.6890585E-1,-6.867116E-2,-6.18998E-1],"categories":[],"categories_nodes":[],"categories_segments":[],"categories_sizes":[],"default_left":[true,true,true,true,true,true,true,false,false,false,false,false,false,false,false],"id":62,"left_children":[1,3,5,7,9,11,13,-1,-1,-1,-1,-1,-1,-1,-1],"loss_changes":[3.075805E3,2.5173877E2,1.1212867E3,5.9493164E1,7.201874E1,5.4634827E2,4.530303E2,0E0,0E0,0E0,0E0,0E0,0E0,0E0,0E0],"parents":[2147483647,0,0,1,1,2,2,3,3,4,4,5,5,6,6],"right_children":[2,4,6,8,10,12,14,-1,-1,-1,-1,-1,-1,-1,-1],"split_conditions":[-5E-1,-6.904762E-1,5E-1,2.9807693E-1,8.75E-1,1.6346154E-1,1.3571429E0,-2.198363E-2,-1.6193958E-2,-7.57051E-3,-2.3770753E-2,-6.243867E-3,8.067175E-3,-2.0601347E-3,-1.8569939E-2],"split_indices":[0,0,0,1,1,1,0,0,0,0,0,0,0,0,0],"split_type":[0,0,0,0,0,0,0,0,0,0,0,0,0,0,0],"sum_hessian":[4.9241688E4,1.108755E4,3.815414E4,7.191307E3,3.8962434E3,2.6188203E4,1.1965936E4,2.4230498E3,4.768257E3,3.631929E3,2.6431436E2,2.6731274E3,2.3515076E4,1.021438E4,1.7515559E3],"tree_param":{"num_deleted":"0","num_feature":"5","num_nodes":"15","size_leaf_vector":"0"}},{"base_weights":[-2.7588664E-2,2.2392383E-1,-1.188948E0,-2.7222258E-1,2.708894E-1,-1.1254189E0,-1.2353108E0,-6.45113E-1,-1.4196193E-1,3.0041674E-1,-4.6510535E-1,-1.2435008E0,-1.1311686E0],"categories":[],"categories_nodes":[],"categories_segments":[],"categories_sizes":[],"default_left":[true,true,true,true,true,false,true,false,false,false,false,false,false],"id":63,"left_children":[1,3,5,7,9,-1,11,-1,-1,-1,-1,-1,-1],"loss_changes":[1.4340805E4,9.404497E2,2.435254E1,1.694432E2,8.013335E2,0E0,2.894043E0,0E0,0E0,0E0,0E0,0E0,0E0],"parents":[2147483647,0,0,1,1,2,2,3,3,4,4,6,6],"right_children":[2,4,6,8,10,-1,12,-1,-1,-1,-1,-1,-1],"split_conditions":[5E-1,-7.380953E-1,-5.952381E-1,-8.8095236E-1,1.3571429E0,-3.3762567E-2,1.3095238E0,-1.935339E-2,-4.258858E-3,9.012502E-3,-1.39531605E-2,-3.7305024E-2,-3.393506E-2],"split_indices":[2,0,0,0,0,0,0,0,0,0,0,0,0],"split_type":[0,0,0,0,0,0,0,0,0,0,0,0,0],"sum_hessian":[4.9094227E4,4.035538E4,8.738849E3,3.489313E3,3.6866062E4,3.6975308E3,5.0413184E3,9.0232404E2,2.586989E3,3.5444652E4,1.4214104E3,4.6636143E3,3.7770413E2],"tree_param":{"num_deleted":"0","num_feature":"5","num_nodes":"13","size_leaf_vector":"0"}},{"base_weights":[-2.402921E-2,2.2145651E-1,-1.1828942E0,2.64684E-1,-4.175146E-1,-1.1887742E0,-1.1285912E0,-2.0119977E-1,3.2297134E-1,-3.2652968E-1,-8.813922E-1,-1.143772E0,-1.1983044E0],"categories":[],"categories_nodes":[],"categories_segments":[],"categories_sizes":[],"default_left":[true,true,true,true,true,true,false,false,false,false,false,false,false],"id":64,"left_children":[1,3,5,7,9,11,-1,-1,-1,-1,-1,-1,-1],"loss_changes":[1.3903253E4,1.1140372E3,1.3867188E0,1.0258228E3,1.07582886E2,1.9267578E0,0E0,0E0,0E0,0E0,0E0,0E0,0E0],"parents":[2147483647,0,0,1,1,2,2,3,3,4,4,5,5],"right_children":[2,4,6,8,10,12,-1,-1,-1,-1,-1,-1,-1],"split_conditions":[5E-1,8.75E-1,8.75E-1,1.6346154E-1,9.519231E-1,1.6346154E-1,-3.3857733E-2,-6.035993E-3,9.68914E-3,-9.79589E-3,-2.6441764E-2,-3.431316E-2,-3.5949133E-2],"split_indices":[2,1,1,1,1,1,0,0,0,0,0,0,0],"split_type":[0,0,0,0,0,0,0,0,0,0,0,0,0],"sum_hessian":[4.8869766E4,4.0327816E4,8.541948E3,3.7772996E4,2.554821E3,7.688544E3,8.534043E2,4.200051E3,3.3572945E4,2.1373127E3,4.1750836E2,1.3648237E3,6.32372E3],"tree_param":{"num_deleted":"0","num_feature":"5","num_nodes":"13","size_leaf_vector":"0"}},{"base_weights":[-2.6073437E-2,2.1460575E-1,-1.1764144E0,-2.8153974E-1,2.6125827E-1,-1.1185095E0,-1.2183862E0,-6.3515186E-1,-1.5467523E-1,3.544798E-1,2.1706456E-2,-1.2256722E0,-1.12393E0],"categories":[],"categories_nodes":[],"categories_segments":[],"categories_sizes":[],"default_left":[true,true,true,true,true,false,true,false,false,false,false,false,false],"id":65,"left_children":[1,3,5,7,9,-1,11,-1,-1,-1,-1,-1,-1],"loss_changes":[1.3408631E4,9.271118E2,1.900293E1,1.5434839E2,8.1752686E2,0E0,1.9580078E0,0E0,0E0,0E0,0E0,0E0,0E0],"parents":[2147483647,0,0,1,1,2,2,3,3,4,4,6,6],"right_children":[2,4,6,8,10,-1,12,-1,-1,-1,-1,-1,-1],"split_conditions":[5E-1,-7.380953E-1,-5.952381E-1,-8.8095236E-1,5E-1,-3.3555284E-2,1.3095238E0,-1.9054556E-2,-4.640257E-3,1.0634393E-2,6.5119367E-4,-3.6770165E-2,-3.3717897E-2],"split_indices":[2,0,0,0,0,0,0,0,0,0,0,0,0],"split_type":[0,0,0,0,0,0,0,0,0,0,0,0,0],"sum_hessian":[4.842863E4,4.005001E4,8.378619E3,3.4417947E3,3.660822E4,3.532618E3,4.8460005E3,9.077098E2,2.5340847E3,2.6352621E4,1.0255595E4,4.4878486E3,3.5815225E2],"tree_param":{"num_deleted":"0","num_feature":"5","num_nodes":"13","size_leaf_vector":"0"}},{"base_weights":[-2.5912482E-2,2.0543166E-1,-1.1687841E0,-2.6811287E-1,2.4958043E-1,-1.116539E0,-1.2127964E0,-5.9266794E-1,-1.5434055E-1,3.4830174E-1,3.0463707E-2,-1.2257469E0,-1.149542E0],"categories":[],"categories_nodes":[],"categories_segments":[],"categories_sizes":[],"default_left":[true,true,true,true,true,false,true,false,false,false,false,false,false],"id":66,"left_children":[1,3,5,7,9,-1,11,-1,-1,-1,-1,-1,-1],"loss_changes":[1.2773554E4,8.400659E2,1.7347656E1,1.26449585E2,7.950132E2,0E0,2.197754E0,0E0,0E0,0E0,0E0,0E0,0E0],"parents":[2147483647,0,0,1,1,2,2,3,3,4,4,6,6],"right_children":[2,4,6,8,10,-1,12,-1,-1,-1,-1,-1,-1],"split_conditions":[5E-1,-7.380953E-1,-5.476191E-1,-8.8095236E-1,4.5238096E-1,-3.3496168E-2,9.2857146E-1,-1.7780038E-2,-4.6302164E-3,1.0449052E-2,9.139112E-4,-3.6772404E-2,-3.448626E-2],"split_indices":[2,0,0,0,0,0,0,0,0,0,0,0,0],"split_type":[0,0,0,0,0,0,0,0,0,0,0,0,0],"sum_hessian":[4.8310176E4,4.017802E4,8.1321567E3,3.4259397E3,3.675208E4,3.730365E3,4.401792E3,8.881448E2,2.537795E3,2.5336383E4,1.1415696E4,3.638483E3,7.63309E2],"tree_param":{"num_deleted":"0","num_feature":"5","num_nodes":"13","size_leaf_vector":"0"}},{"base_weights":[-2.2953123E-2,-5.0529224E-1,8.522642E-2,-4.688385E-1,-8.4727657E-1,2.9343742E-1,-2.4593864E-2,-6.6302925E-1,-3.5964417E-1,-7.909196E-1,-1.0643866E0,-9.109172E-2,7.8889847E-1,-1.9609472E-1,1.5754394E-1],"categories":[],"categories_nodes":[],"categories_segments":[],"categories_sizes":[],"default_left":[true,true,true,true,true,true,true,false,false,false,false,false,false,false,false],"id":67,"left_children":[1,3,5,7,9,11,13,-1,-1,-1,-1,-1,-1,-1,-1],"loss_changes":[2.495986E3,1.08848145E2,8.934189E2,1.6772656E2,9.471313E0,2.5705825E3,7.990944E2,0E0,0E0,0E0,0E0,0E0,0E0,0E0,0E0],"parents":[2147483647,0,0,1,1,2,2,3,3,4,4,5,5,6,6],"right_children":[2,4,6,8,10,12,14,-1,-1,-1,-1,-1,-1,-1,-1],"split_conditions":[-5.952381E-1,8.75E-1,5.2884614E-1,2.9807693E-1,9.519231E-1,2.9807693E-1,5.480769E-1,-1.9890876E-2,-1.0789325E-2,-2.3727588E-2,-3.1931598E-2,-2.7327517E-3,2.3666954E-2,-5.8828415E-3,4.726318E-3],"split_indices":[0,1,1,1,1,1,1,0,0,0,0,0,0,0,0],"split_type":[0,0,0,0,0,0,0,0,0,0,0,0,0,0,0],"sum_hessian":[4.783304E4,8.762058E3,3.907098E4,7.9201797E3,8.4187854E2,1.3491133E4,2.5579848E4,2.8488047E3,5.071375E3,6.7206757E2,1.6981096E2,7.596375E3,5.8947583E3,1.3174587E4,1.2405261E4],"tree_param":{"num_deleted":"0","num_feature":"5","num_nodes":"15","size_leaf_vector":"0"}},{"base_weights":[-3.155503E-2,1.9205616E-1,-1.1634774E0,-2.9903486E-1,2.2843868E-1,-7.3383003E-1,-1.6808532E-1,2.6886055E-1,-2.7426428E-1],"categories":[],"categories_nodes":[],"categories_segments":[],"categories_sizes":[],"default_left":[true,true,false,true,true,false,false,false,false],"id":68,"left_children":[1,3,-1,5,7,-1,-1,-1,-1],"loss_changes":[1.2100635E4,7.1334875E2,0E0,1.5667976E2,7.5534216E2,0E0,0E0,0E0,0E0],"parents":[2147483647,0,0,1,1,3,3,4,4],"right_children":[2,4,-1,6,8,-1,-1,-1,-1],"split_conditions":[5E-1,9.5155716E-2,-3.4904324E-2,2.5951557E-2,9.013841E-1,-2.2014901E-2,-5.0425595E-3,8.065816E-3,-8.227929E-3],"split_indices":[2,4,0,4,4,0,0,0,0],"split_type":[0,0,0,0,0,0,0,0,0],"sum_hessian":[4.780583E4,3.992039E4,7.8854404E3,2.7530127E3,3.7167375E4,6.361577E2,2.116855E3,3.440164E4,2.765737E3],"tree_param":{"num_deleted":"0","num_feature":"5","num_nodes":"9","size_leaf_vector":"0"}},{"base_weights":[-2.712427E-2,1.922191E-1,-1.1577753E0,-2.6527607E-1,2.3551434E-1,-1.1027764E0,-1.1964005E0,-4.78117E-1,-7.311379E-2,3.2570323E-1,6.7803166E-3,-1.2050202E0,-1.1356274E0],"categories":[],"categories_nodes":[],"categories_segments":[],"categories_sizes":[],"default_left":[true,true,true,true,true,false,true,false,false,false,false,true,true],"id":69,"left_children":[1,3,5,7,9,-1,-1,-1,-1,-1,-1,-1,-1],"loss_changes":[1.1776625E4,7.878196E2,1.5071289E1,1.4061269E2,7.4952295E2,0E0,9.995117E-1,0E0,0E0,0E0,0E0,0E0,0E0],"parents":[2147483647,0,0,1,1,2,2,3,3,4,4,6,6],"right_children":[2,4,6,8,10,-1,-1,-1,-1,-1,-1,-1,-1],"split_conditions":[5E-1,-7.380953E-1,-5.952381E-1,-8.333334E-1,5E-1,-3.308329E-2,-3.5892013E-2,-1.4343509E-2,-2.1934137E-3,9.7710965E-3,2.034095E-4,-3.6150604E-2,-3.406882E-2],"split_indices":[2,0,0,0,0,0,0,0,0,0,0,2147483647,2147483647],"split_type":[0,0,0,0,0,0,0,0,0,0,0,0,0],"sum_hessian":[4.7484344E4,3.9769914E4,7.7144307E3,3.437818E3,3.6332098E4,3.194834E3,4.5195967E3,1.6304388E3,1.8073792E3,2.605736E4,1.0274735E4,3.9417012E3,5.778954E2],"tree_param":{"num_deleted":"2","num_feature":"5","num_nodes":"13","size_leaf_vector":"0"}},{"base_weights":[-2.230562E-2,1.9120291E-1,-1.1525441E0,2.1698022E-1,-4.469003E-1,-1.4789256E-1,2.671809E-1,-2.7546573E-1,-7.912487E-1],"categories":[],"categories_nodes":[],"categories_segments":[],"categories_sizes":[],"default_left":[true,true,false,true,true,false,false,false,false],"id":70,"left_children":[1,3,-1,5,7,-1,-1,-1,-1],"loss_changes":[1.1380384E4,6.5255676E2,0E0,6.9840857E2,9.072336E1,0E0,0E0,0E0,0E0],"parents":[2147483647,0,0,1,1,3,3,4,4],"right_children":[2,4,-1,6,8,-1,-1,-1,-1],"split_conditions":[5E-1,9.3944633E-1,-3.4576323E-2,1.4705881E-1,9.7750866E-1,-4.436777E-3,8.015427E-3,-8.263972E-3,-2.373746E-2],"split_indices":[2,4,0,4,4,0,0,0,0],"split_type":[0,0,0,0,0,0,0,0,0],"sum_hessian":[4.7157848E4,3.9665617E4,7.4922314E3,3.8126105E4,1.5395117E3,4.610892E3,3.3515215E4,1.0290145E3,5.1049716E2],"tree_param":{"num_deleted":"0","num_feature":"5","num_nodes":"9","size_leaf_vector":"0"}},{"base_weights":[-1.9757211E-2,1.8963593E-1,-1.1468024E0,2.3160043E-1,-4.3185955E-1,-1.1519256E0,-1.0984831E0,-2.0784181E-1,2.8702942E-1,-3.446385E-1,-8.641443E-1,-1.1153393E0,-1.1596302E0],"categories":[],"categories_nodes":[],"categories_segments":[],"categories_sizes":[],"default_left":[true,true,true,true,true,true,true,false,false,false,false,true,true],"id":71,"left_children":[1,3,-1,7,9,-1,-1,-1,-1,-1,-1,-1,-1],"loss_changes":[1.1120472E4,1.036513E3,5.6152344E-1,9.0679846E2,9.448547E1,5.8203125E-1,0E0,0E0,0E0,0E0,0E0,0E0,0E0],"parents":[2147483647,0,0,1,1,2,2,3,3,4,4,5,5],"right_children":[2,4,-1,8,10,-1,-1,-1,-1,-1,-1,-1,-1],"split_conditions":[5E-1,8.75E-1,-3.4404073E-2,1.6346154E-1,9.519231E-1,-3.4557767E-2,-3.295449E-2,-6.2352545E-3,8.610882E-3,-1.0339155E-2,-2.5924329E-2,-3.3460177E-2,-3.4788903E-2],"split_indices":[2,1,1,1,1,2147483647,2147483647,0,0,0,0,2147483647,2147483647],"split_type":[0,0,0,0,0,0,0,0,0,0,0,0,0],"sum_hessian":[4.7119613E4,3.9737613E4,7.381999E3,3.7224758E4,2.512856E3,6.6536885E3,7.283106E2,4.1691206E3,3.3055637E4,2.0924622E3,4.203938E2,1.1827981E3,5.47089E3],"tree_param":{"num_deleted":"4","num_feature":"5","num_nodes":"13","size_leaf_vector":"0"}},{"base_weights":[-2.767096E-2,1.7267706E-1,-1.140379E0,2.1181148E-1,-4.140845E-1,-1.1449031E0,-1.0973387E0,-2.2264582E-1,2.672834E-1,-3.2219237E-1,-8.7562764E-1,-1.109076E0,-1.1523249E0],"categories":[],"categories_nodes":[],"categories_segments":[],"categories_sizes":[],"default_left":[true,true,true,true,true,true,true,false,false,false,false,true,true],"id":72,"left_children":[1,3,-1,7,9,-1,-1,-1,-1,-1,-1,-1,-1],"loss_changes":[1.0439491E4,9.113285E2,1.3476562E-1,8.966616E2,1.0496716E2,4.3554688E-1,0E0,0E0,0E0,0E0,0E0,0E0,0E0],"parents":[2147483647,0,0,1,1,2,2,3,3,4,4,5,5],"right_children":[2,4,-1,8,10,-1,-1,-1,-1,-1,-1,-1,-1],"split_conditions":[5E-1,8.75E-1,-3.4211367E-2,1.6346154E-1,9.519231E-1,-3.434709E-2,-3.292016E-2,-6.6793743E-3,8.018502E-3,-9.66577E-3,-2.6268829E-2,-3.327228E-2,-3.4569748E-2],"split_indices":[2,1,1,1,1,2147483647,2147483647,0,0,0,0,2147483647,2147483647],"split_type":[0,0,0,0,0,0,0,0,0,0,0,0,0],"sum_hessian":[4.682692E4,3.968272E4,7.1442046E3,3.7202137E4,2.4805813E3,6.441514E3,7.0269037E2,4.211846E3,3.299029E4,2.0701228E3,4.1045837E2,1.131234E3,5.3102803E3],"tree_param":{"num_deleted":"4","num_feature":"5","num_nodes":"13","size_leaf_vector":"0"}},{"base_weights":[-2.3013264E-2,1.7292102E-1,-1.1352024E0,2.1005979E-1,-3.807531E-1,-2.1082179E-1,2.6335308E-1,-2.9343972E-1,-8.158508E-1],"categories":[],"categories_nodes":[],"categories_segments":[],"categories_sizes":[],"default_left":[true,true,false,true,true,false,false,false,false],"id":73,"left_children":[1,3,-1,5,7,-1,-1,-1,-1],"loss_changes":[1.0132601E4,8.12994E2,0E0,8.3106714E2,9.4181946E1,0E0,0E0,0E0,0E0],"parents":[2147483647,0,0,1,1,3,3,4,4],"right_children":[2,4,-1,6,8,-1,-1,-1,-1],"split_conditions":[5E-1,8.75E-1,-3.405607E-2,1.6346154E-1,9.519231E-1,-6.3246535E-3,7.900592E-3,-8.803192E-3,-2.4475524E-2],"split_indices":[2,1,0,1,1,0,0,0,0],"split_type":[0,0,0,0,0,0,0,0,0],"sum_hessian":[4.6495836E4,3.953228E4,6.9635547E3,3.7047848E4,2.4844358E3,4.1635356E3,3.2884312E4,2.0705933E3,4.1384265E2],"tree_param":{"num_deleted":"0","num_feature":"5","num_nodes":"9","size_leaf_vector":"0"}},{"base_weights":[-1.8218132E-2,1.723515E-1,-1.1294794E0,-2.6410776E-1,2.139668E-1,-1.0829719E0,-1.1617185E0,-5.895403E-1,-1.510066E-1,2.5023288E-1,-3.4964243E-1,-1.1667832E0,-1.091423E0],"categories":[],"categories_nodes":[],"categories_segments":[],"categories_sizes":[],"default_left":[true,true,true,true,true,false,true,false,false,false,false,true,true],"id":74,"left_children":[1,3,5,7,9,-1,-1,-1,-1,-1,-1,-1,-1],"loss_changes":[9.813083E3,7.1850366E2,8.912109E0,1.2665866E2,7.3821497E2,0E0,1.4794922E-1,0E0,0E0,0E0,0E0,0E0,0E0],"parents":[2147483647,0,0,1,1,2,2,3,3,4,4,6,6],"right_children":[2,4,6,8,10,-1,-1,-1,-1,-1,-1,-1,-1],"split_conditions":[5E-1,-7.380953E-1,-5.952381E-1,-8.8095236E-1,1.2142857E0,-3.248916E-2,-3.4851555E-2,-1.7686209E-2,-4.530198E-3,7.506986E-3,-1.0489273E-2,-3.5003494E-2,-3.274269E-2],"split_indices":[2,0,0,0,0,0,0,0,0,0,0,2147483647,2147483647],"split_type":[0,0,0,0,0,0,0,0,0,0,0,0,0],"sum_hessian":[4.6335902E4,3.9553703E4,6.782199E3,3.4425938E3,3.611111E4,2.7908154E3,3.991384E3,8.8678467E2,2.555809E3,3.3928496E4,2.182611E3,3.7085874E3,2.8279672E2],"tree_param":{"num_deleted":"2","num_feature":"5","num_nodes":"13","size_leaf_vector":"0"}},{"base_weights":[-2.0576533E-2,1.6403034E-1,-1.1243541E0,-2.5429782E-1,2.0364195E-1,-1.084671E0,-1.1560822E0,-5.6581235E-1,-1.4799297E-1,2.3820707E-1,-3.3692428E-1,-1.1619451E0,-1.0808938E0],"categories":[],"categories_nodes":[],"categories_segments":[],"categories_sizes":[],"default_left":[true,true,true,true,true,false,true,false,false,false,false,true,true],"id":75,"left_children":[1,3,5,7,9,-1,-1,-1,-1,-1,-1,-1,-1],"loss_changes":[9.40436E3,6.5525574E2,7.073242E0,1.13192505E2,6.7498035E2,0E0,3.569336E-1,0E0,0E0,0E0,0E0,0E0,0E0],"parents":[2147483647,0,0,1,1,2,2,3,3,4,4,6,6],"right_children":[2,4,6,8,10,-1,-1,-1,-1,-1,-1,-1,-1],"split_conditions":[5E-1,-7.380953E-1,-5.476191E-1,-8.8095236E-1,1.2142857E0,-3.254013E-2,-3.4682464E-2,-1.697437E-2,-4.439789E-3,7.146212E-3,-1.0107729E-2,-3.4858353E-2,-3.242681E-2],"split_indices":[2,0,0,0,0,0,0,0,0,0,0,2147483647,2147483647],"split_type":[0,0,0,0,0,0,0,0,0,0,0,0,0],"sum_hessian":[4.615108E4,3.9539023E4,6.612053E3,3.419641E3,3.6119383E4,2.9533672E3,3.6586858E3,8.6895184E2,2.5506892E3,3.3949152E4,2.1702324E3,3.3806187E3,2.780673E2],"tree_param":{"num_deleted":"2","num_feature":"5","num_nodes":"13","size_leaf_vector":"0"}},{"base_weights":[-1.9690385E-2,1.6038525E-1,-1.1215527E0,1.9744378E-1,-3.8724092E-1,-2.2280523E-1,2.5154185E-1,-3.0499545E-1,-7.977438E-1],"categories":[],"categories_nodes":[],"categories_segments":[],"categories_sizes":[],"default_left":[true,true,false,true,true,false,false,false,false],"id":76,"left_children":[1,3,-1,5,7,-1,-1,-1,-1],"loss_changes":[9.089913E3,7.991953E2,0E0,8.3854565E2,8.403046E1,0E0,0E0,0E0,0E0],"parents":[2147483647,0,0,1,1,3,3,4,4],"right_children":[2,4,-1,6,8,-1,-1,-1,-1],"split_conditions":[5E-1,8.75E-1,-3.364658E-2,1.6346154E-1,9.519231E-1,-6.6841566E-3,7.5462554E-3,-9.149863E-3,-2.3932314E-2],"split_indices":[2,1,0,1,1,0,0,0,0],"split_type":[0,0,0,0,0,0,0,0,0],"sum_hessian":[4.5809906E4,3.937566E4,6.434248E3,3.6880547E4,2.495113E3,4.2057764E3,3.267477E4,2.0801016E3,4.1501154E2],"tree_param":{"num_deleted":"0","num_feature":"5","num_nodes":"9","size_leaf_vector":"0"}},{"base_weights":[-1.9876614E-2,1.5479513E-1,-1.1159348E0,1.9175868E-1,-3.8607928E-1,-3.1393558E-1,2.2741501E-1,-3.079447E-1,-7.787639E-1],"categories":[],"categories_nodes":[],"categories_segments":[],"categories_sizes":[],"default_left":[true,true,false,true,true,false,false,false,false],"id":77,"left_children":[1,3,-1,5,7,-1,-1,-1,-1],"loss_changes":[8.692142E3,7.8300256E2,0E0,6.6103125E2,7.663147E1,0E0,0E0,0E0,0E0],"parents":[2147483647,0,0,1,1,3,3,4,4],"right_children":[2,4,-1,6,8,-1,-1,-1,-1],"split_conditions":[5E-1,8.75E-1,-3.3478044E-2,9.16955E-2,9.519231E-1,-9.4180675E-3,6.82245E-3,-9.23834E-3,-2.3362916E-2],"split_indices":[2,1,0,4,1,0,0,0,0],"split_type":[0,0,0,0,0,0,0,0,0],"sum_hessian":[4.5399633E4,3.915984E4,6.2397925E3,3.6655438E4,2.5044006E3,2.4138157E3,3.4241625E4,2.090272E3,4.1412848E2],"tree_param":{"num_deleted":"0","num_feature":"5","num_nodes":"9","size_leaf_vector":"0"}},{"base_weights":[-1.6614644E-2,1.547273E-1,-1.1128023E0,1.9122832E-1,-3.8411564E-1,-1.0744555E0,-1.1386274E0,-1.9503309E-1,2.4091752E-1,-3.1106997E-1,-7.565753E-1],"categories":[],"categories_nodes":[],"categories_segments":[],"categories_sizes":[],"default_left":[true,true,true,true,true,false,